solver_type L1R_LR
nr_class 2
label 1 2
nr_feature 46811
bias -1
w
0.151998974256558
0.056115415851276
-0.369999194924505
0.243136181458566
0.605381631020174
0.004087664854636
0.931883002137691
-0.040294595691705
0.080742775791638
0.008632456398087
0.086404851779374
-0.419485583450588
0.030879171971401
0.331609962050903
0.410059064498841
-0.030545204858666
-0.158370238392854
1.597605511584249
0.096223529186388
0.225975051574927
-1.155414469891207
-0.608491289813581
1.110581249542263
0.187910786834891
0.071473784539147
0.380344274784894
1.650229984146270
-0.748477656469337
0.030891877486372
-0.130595133049090
-1.551515189176718
-0.861641468022673
0.246719973014914
0.137691935950404
0.752630429027552
-0.035422143253703
-0.467029654135126
-0.194977390052628
-2.339907362106932
0.013753712674278
-1.706202748476858
-0.312813389502229
-0.596776580344561
-0.750809771987391
-0.373816940462213
2.106153750459890
-0.085617617782885
-0.820959296562668
0.409032638198106
-0.288001461079477
0.042780751001455
-2.487452834499481
-0.631428304386868
-2.654170828649169
-0.702861798827181
-0.284071144295824
0.386306098893951
0.063810689724798
0.061359364377273
0.327537511239380
0.408103073980380
-3.537351052369464
0.126485195528456
-3.008521013039027
-0.789172838454597
-0.043918924837798
1.158946449169186
0.537818084893974
0.497883761947978
-4.221175936584875
0.089651361929468
0.137901112070134
1.163935946294730
-0.155575759148686
0.222809166670092
2.982514449547679
0.188178009799797
-0.006986056749261
1.447312255150111
-0.372039886745128
-3.941178978942955
-0.382582682297345
-0.066028923040480
1.684463663614048
-0.082768457216482
-4.333722557922390
-1.620159484291466
-0.207800140917245
-0.075814323444550
-0.749529773976567
-2.897032255292653
-0.505923427018865
-0.179122140032618
-0.891745183478631
-1.221305178609578
-0.346346021984158
-1.424545170121292
-0.942221798314373
-0.245068634665746
0.453588106681689
-1.207679401715695
0.006752578841040
-0.748149822014652
1.305502252359810
-0.002769619949767
0.011204633550776
-1.232569138940312
-0.319041496611187
1.709986199862200
0.101671085208074
-0.983795797853576
-0.081536166049170
-0.037897133386916
-0.102793943039580
-7.389491039257088
-0.679172602625441
0.017880224010783
0.024438404197629
-0.060095466592350
0.452226031226840
0.019916751349817
-0.009832317685205
0.723522528325463
0.037008656113472
0.681012664664975
0.377898567751964
0.215221607562462
0.011844378969862
0.966749319519040
0.292493459288539
-0.106514261264768
-0.350578883910801
-0.042233698306822
2.052960751075183
1.963542763277303
0.058707492450166
0.220139123085726
2.794665335898599
3.506124042898875
0.421307266098408
0.033236642493989
0.039059476733491
0.241058413750237
-0.388683411634451
3.660996997524127
-0.169852349731078
0.202960167768846
-0.168555940873788
0.322669659066424
1.564246898855345
0.675962512263749
0.129366054185922
-0.441182370639284
-3.139072667691377
-0.118154033152504
1.184790497050570
0.189042552382384
1.398150885379086
0.062148353954874
-0.163890449842973
0.153465625949599
0.089279090104921
0.952535806411377
-0.593637666961904
-0.536569877404747
-1.141599582143176
-0.345690499043799
-1.371009076264114
-0.118513524945293
-1.883177570080712
0.684770883816138
0.374971274174481
0.228825266609919
-0.164864758620137
-0.442851605820701
0.194743683218682
0.071913989224879
-0.435038849970197
-0.319670056983546
0.106689440056052
0.286773170214240
-2.580029211470559
-2.311386085942579
1.153731525399046
-0.718059120085394
0.079980953904025
-1.847214660226037
-0.388509176509740
0.744753532610091
2.844064046892106
4.893289010818643
0.235802728979586
-0.054913117759947
-0.946953358229121
4.597199242735096
-0.681382827610555
2.860436338258335
0.794170668978980
0.081792066221143
1.026095023574231
-0.099217174305121
-2.419992082356269
-1.722988327416429
-0.320807507823183
0.426752215543179
-2.312614055397293
0.316278031358830
1.187480475953594
-1.039232267675266
4.254781400331427
-0.657099283221969
0.082833987182192
2.432216226034285
0.688695881723130
3.198900740505365
2.193935363717570
-0.272699140351633
0.162915413207199
1.670153656125692
0.266603233008911
-0.147732425905052
1.602416320472253
0.192148798982028
2.062361771610948
2.043269983699632
0.103774427649793
-0.531754860096453
1.174985691384597
0.966654304925344
0.574801224855084
-0.022996526353580
2.461220504709692
0.071756883233622
0.340758034582956
-0.229274802783341
-1.171020156373210
-1.139946646363617
0.617478632031789
-0.213804467597494
-0.739426945505151
-0.950513026498782
-1.576344268746404
0.637981746442551
0.290657875620997
0.296200623664585
0.042628931163685
0.049976212518013
0.309890407751779
0.116860945904217
-0.307860148556530
0.030842311568403
0.012402368749949
-0.136942701934659
0.193021420239273
-0.381524391383826
-0.194934842671299
-0.141502177903291
-1.203436483558710
-0.166693516908835
-0.086497451607704
0.276577024373972
-1.675467721473624
2.464351039346899
-2.042470499087678
-1.936999394923319
0.872958730006550
0.154943946531280
0.446501849286748
0.467551976196366
1.039359164951948
0.252094009896753
-0.682118984969473
0.239944743437933
0.365945321313527
0.898563720128590
-0.175024488358589
1.741460181014137
1.181085438189015
-0.654751994932865
0.025280254958235
0.393330234447715
2.513267352686540
0.083250868801926
-0.006027235785654
1.174448612561794
1.346983910523051
0.304428739505472
-0.227933905998644
-0.348226600209598
2.217447091303737
1.292578448016802
0.068339504135810
-0.233752826907652
2.364958427233297
-0.325926063461289
0.360435211206578
0.101788596711490
1.816580531973818
1.184447885626886
-1.224297734285651
1.426810654831002
0.216857167397228
-0.453822870197027
-0.363401617671080
-1.125421410814924
0.317402156692009
0.590494621924795
-2.154455565427766
-0.870719379852040
-3.243676625999254
-0.094118727806562
0.354220606709621
-0.926204435782622
1.104789166129815
0.092358423708692
0.199474704394226
1.646259655268441
0.116538131134811
0.348791202306138
1.165526853614053
-0.387764593771244
-5.702055000373615
0.098482639035369
0.704499406784359
-1.030184919488839
0.194729719277699
-0.510786469850537
0.835898728845460
-1.142222066465440
0.590807754630316
0.210415243066200
-0.483150918049066
0.248781778454900
-0.559686042639582
-1.438940268318621
-0.083788386038596
-0.771096850210397
0.043878049854184
0.147823099506406
0.279423107008404
0.068402881356574
-2.271022171406053
0.329058791203683
-0.150158861634882
0.218366194558725
3.247849916357501
1.456967598400050
-0.218607741362748
0.539139087533912
1.082675762285618
0.882052344838628
0.538194194144566
0.045836112302680
0.117052985630523
0.961016667482184
1.076476386405881
0.009268322516392
0.208279665993077
1.788250946494635
0.184994359471621
-0.751591016511346
0.529839533670650
2.853069233937937
0.265405142672018
0.668106939130545
0.181650303249910
0.650274403115237
0.330688591811878
1.572298390040354
-0.461284701852743
1.107603494971852
1.732234937243982
-1.023459890059771
-0.304106391375254
-0.198346254706370
0.644678676455595
0.053428329293117
-0.166958885644639
1.555912823462455
0.277231263263804
-0.003472111579218
1.801167696960956
0.078205732032138
1.682143273471024
0.009679205012261
0.339835635544446
1.010835865604769
0.515407030954744
-0.107938814506066
0.029297120901616
0.200477592989222
2.585925512689147
-0.342970292842173
0.971619889417960
0.687366640437310
0.102764613209374
-0.036089327199838
-0.492135781040941
-0.083136387413764
1.444640713443528
0.029314158234561
0.320168470805830
0.003749101499908
2.838786688088745
0.853359924170989
0.125452139596152
2.055498022214700
0.025930792481659
0.626618750637727
0.032293083222019
1.529467668922350
0.138157965184688
0.062276042454090
-0.233926247603784
-1.127631914085180
-0.409956588632701
-1.990961616491684
-0.335229535122474
-2.660848641187278
0.229778163189391
1.194728059491341
2.451663063443078
-0.702251160020387
0.044554798586510
2.170177774248299
3.839062360192905
0.422508186208665
0.915124807934055
-0.545558422769036
-3.195941288423294
-0.558180868921126
-1.210342454180729
-1.641886897573295
-0.212336138098877
0.337156606767713
1.403679780380050
0.257236867260435
0.824063253269872
1.680366207565336
0.516312251426348
1.265601063497691
2.280619088246739
-0.145720992109578
0.827997471746401
0.464292972075651
0.528819767852951
1.064850018055699
0.172167620897223
-0.273937018446254
0.781759157905575
0.068290326033877
-0.748306255851895
-0.392062867142905
0.217502964413818
0.069444544348630
0.910776201182333
0.269600305962374
0.149815449395231
3.005107367836450
-0.391843645098497
-0.580555316219256
1.288342353925528
1.295679766246027
-0.102497618666960
2.396870052495495
1.307672401113039
0.761530530552664
1.898614475017450
0.351679860733846
0.717928491292820
-0.084629233545026
0.037324190336991
-0.698619039580560
-0.923234479434980
0.042293811463309
-2.972361786076868
-0.797921266550257
-1.663092321930513
0.252277616910586
0.243715377959784
0.185577090881490
0.127613203956951
1.462705778570984
0.200701248587500
3.697064248112008
-0.164968367966539
1.204184313993895
0.666116277537810
0.101420497004853
-0.099061721411720
1.704357437563009
0.376370420686122
0.218896496342591
0.044928900904610
0.416516453169999
0.055574747129525
0.230682263636734
-0.170558297669565
0.152925770171553
0.108432800251077
-0.486705562533794
0.935141686416752
-0.655696741394878
0.469844101112335
0.893189131331401
0.884508246941960
0.770675145813268
-0.998055823240903
0.326087773419338
-0.527272728187030
1.033599400744984
3.169436675432029
-0.264223527837147
1.181733392241315
2.989467985791959
-0.059111213586892
-0.354823732050332
-0.852351747608949
1.967515633470429
0.694503771786039
0.086125938945774
-0.185246017734329
1.900733773588593
0.553844068375129
0.472607660765972
-0.447088801241445
1.117625607944513
0.698943968619424
0.136749694512765
-0.113620606564835
0.993420765647440
-0.561185680941295
-3.636069324397238
1.229164587192686
-0.247909115549807
-4.495914797830052
0.357729647207020
-1.487954658646638
-0.114764265871199
1.078286523569090
-0.675033994600853
1.251781835002727
0.407121344127226
-0.673806110878549
-0.255616933519216
0.782195317181795
0.462415066223652
1.092256244902614
0.143409657257770
1.699419852461274
-1.176680259056957
-1.545126331024907
-0.554066876584366
-0.156631792942888
-0.678064675834602
0.876426137016286
0.691764271776323
3.215776808044644
0.609413665706162
-0.243470337461936
-0.105633929431117
-0.101192892588942
1.629525794001453
2.239569549607968
-0.399878300447753
0.322368783373185
0.176451788849679
1.043151294721393
-0.559309305378627
1.510645767129459
0.945135438565681
0.018106390982591
0.869892229627766
0.435144942283584
-0.478899699067344
0.193429449048809
1.642462833536732
1.783454945612575
-1.023253483212986
-0.081026033376433
0.740631923696680
0.359151616733046
0.695751879624027
1.178911397000319
0.289783885142376
0.396804840865931
-0.133531163203641
0.255241908588279
-1.174729276425384
-3.175459408928278
-4.505283233612653
-0.331225839395531
0.123736925471713
1.437130678346339
0.948243979830951
0.595126707291589
0.146678609732140
-0.651782120153757
1.251535163170461
-0.377975091057205
0.324698235504976
-0.313589753210803
0.811822819583355
1.002966236971537
1.165423953960384
1.847150622928687
0.009349445467690
1.277946040469902
-1.257783502805557
-6.753897087602851
0.772849491844101
-3.311907777181684
2.043184384379748
1.079220027057488
2.335783093857354
0.211965554582888
-0.379210566588158
3.408043485706469
-0.270111181193239
-0.292240691817677
0.032607661479379
0.291713968543465
0.197285100987378
0.049362439103411
0.033311974377240
0.174006010226708
-0.325595947948745
0.656481796001452
0.287777854850407
1.872330739171955
1.283923089036595
0.050769412547997
1.518279183355091
-0.583576143529600
-0.139063714314668
0.460241644381327
0.353931460160992
0.972211031063812
0.523696789844213
0.419405480171676
-0.661994641856546
0.492653664111052
-0.631971195871565
0.200534174849493
0.511602842421910
-0.533845742535729
0.712255805148735
1.740833668424194
1.683428118056585
0.895346903257942
0.083670481095241
-0.222971711564541
0.222979738963182
-0.287815353219102
0.596825522843142
0.284466600106640
0.495955971589546
0.127378477285123
-0.391879398597301
0.721239970109629
-0.675912528105615
0.324909691780209
0.893772296879208
-0.378606232350256
-1.591659644360604
-2.514591025586897
0.217646136471012
0.000226766877906
1.347709520055502
-0.508524166897913
0.536845610536548
0.138297955169472
-0.116256508058254
0.453887746991447
0.624697697218791
0.467245875388851
0.005439306702718
0.558357520963189
0.810530735299051
-0.044868297076220
0.223783044012004
0.340141259523275
-0.020455847850549
-0.452758405201468
0.062645962093039
0.044782856743687
0.627388714430007
0.118851317168552
-0.292677880688291
-0.752617386998272
0.978025700579715
-0.163651000745958
-0.659642291377770
0.109394368152708
2.189962025870153
0.213381169168996
2.008629357049593
0.012454952717037
1.855504327196387
0.942983483478547
0.127249402664653
0.297711825460821
0.204122589506302
0.143717935639705
-0.154819655912239
-0.019151546223522
-0.462418483793941
-0.310337006275640
0.295875244105804
0.147773166725704
0.693532703295532
0.655611069113456
0.537541437321229
1.032053467618131
-0.768611089658101
1.905433704928468
-1.890673684107847
0.930195162884770
-0.567805275846416
-0.682239408453582
-0.111581427247399
-4.090127003934633
1.719026745237533
-0.949423806447990
-3.471032232760664
-0.168946859415119
-0.064393558988686
2.701777324258040
0.410058334650668
2.194662670861358
-0.225876202089368
0.508562188427836
0.095120429929497
0.160055832749264
-0.097127167065673
0.008763955779950
-0.920459930111191
0.280733542182518
-1.113350536377621
0.390885357505378
-0.413582026264786
2.742846193716767
-0.067429175382822
-0.176801427601992
0.725075245169229
-0.076812260642338
0.095088347198524
1.530608187251597
0.115927233311110
0.493214138761083
0.656245885838291
-0.134680125204648
0.969321202804604
2.011222275454380
-0.266685582223114
-0.125554890335415
0.490178614081471
1.033784487876837
0.154713810079346
0.949557134652430
0.566241878391139
0.142319581577644
0.508507365396124
0.100353522401436
-0.964020298096637
-1.303991768603691
-2.684636965785511
-0.002296901935912
-0.286623072164473
-1.895168318594942
-1.557170404748945
-2.282205447242671
-0.306760234677332
0.857848164368588
-0.401005272060930
-0.262318613471707
-2.344312262671191
0.502531169142163
0.215969478629295
-0.336745545394756
0.864961333605292
0.166670825600674
-0.318413708206464
0.548751655135225
-0.355458739712029
0.931913839585087
-2.274571417703187
0.247159697149791
-0.382705694626245
-1.375507115541569
0.129232031760332
-0.163063897682747
2.445546107499768
-0.051560577333646
1.015210056176745
-0.072816029948421
1.703117480270467
-0.265009282284643
-1.977629930153896
1.016454344897371
0.278427171020832
2.413963251951867
1.109470860094945
0.180204832464792
-0.345912297084066
0.232162530633416
0.343197166720885
0.023867343858013
0.316438473111746
-0.172333800650302
-2.572936346164446
0.189926830185043
-0.035907431369675
-0.035363473798515
-0.939051008610159
0.000251690260325
0.070705123444315
0.104197409213343
0.064764091735665
-0.118250575631102
1.433563302563582
0.246924109529535
0.803576948235427
0.861726320177006
-0.064583735467057
-1.055286957457638
0.424651714053375
0.799061758733855
-0.210029081435849
-1.851088743035138
-0.149360290278173
0.286348798034666
-3.013230087514594
0.118704969278595
-0.148803175579852
0.123490275128335
-0.133627922250020
-0.335427114098756
0.427676265653390
0.120533984565573
-0.419930047537178
-0.054224191073152
-2.423580284818443
-0.192256543802217
-1.441492539185689
-0.573551247267999
-0.280345232444855
0.164258049293270
1.619201409004587
0.084614160942390
0.399868971667359
0.390560537035744
-0.285172914553005
0.110146797963718
0.070868396228772
0.330365143996587
0.857754871669732
0.148281418875542
0.612799912965743
0.010052955908868
2.278963856601317
0.778854364351165
1.338317147159175
0.559679852703901
-0.041195002845938
0.468501832864465
0.895942982104120
1.874452481963918
0.382210336245161
1.355936858045966
0.757108160528051
0.553467263566264
1.773348744681661
0.935383208956770
-0.457278296969457
-0.049435574110697
1.500294471778389
-3.335294772611549
0.438823284863991
0.030959944615051
1.166994854900047
-0.867208232110286
0.670947747395204
0.931114732631310
-1.604647550849746
0.690746513892293
0.143069384205068
0.017054041974441
0.479781957315651
0.143135697308324
-0.680318000978657
0.668839873223228
-0.111557333687971
-0.140503650425948
1.080927365214239
0.597965829804364
-0.151171911332669
-0.649778032417591
0.279415324651119
0.619742644901662
0.324637710032089
-0.062240441989996
0.193109362193788
2.534886728102538
0.497155660234027
0.186223366951219
0.914351601804357
-0.588573072626797
-0.239708173994911
1.425480336232834
0.121839697665592
0.281742812929596
0.410707418652725
0.738163584817255
0.258580013895860
0.774046818716249
0.422516521996758
1.348316545348778
0.355958997731923
0.242279243761893
0.281319974526436
0.927080611911459
0.031831836828251
-0.646225511327846
0.300259911499244
-2.149122187050847
-0.195726872598699
2.957896531778996
-0.125031312424045
0.426684052898102
0.625038713576771
0.621608385880145
1.677053047318449
-0.781317571421330
-0.097897496705729
-0.446125148182579
1.730574016928532
1.915766467211220
-0.143372278257264
2.621419062560307
1.027223877243429
-0.059467301162140
0.935264088265112
0.466445400953471
0.272823467755659
-0.283382576700058
0.847381174860537
1.625462450571672
0.004699514626934
2.150029848153998
0.336916839523628
0.054087164294017
-0.754059496633816
0.624783442088155
1.709470259987190
0.039552971012938
-0.005633331250761
-1.665162819101647
-1.269985533699013
-0.467175888637976
0.029747092698171
0.008930898220296
2.619974728435255
-0.510280900625567
2.843610500076050
0.399667254689920
-0.309440040650773
-1.095404019470701
-0.570993837143155
-0.396722939569523
-1.317182975328766
0.294083258790463
1.014211537481150
1.672396923611871
1.245796087852045
0.069033624361412
0.343422878035670
1.205279481574937
0.841173995385387
0.088923839437600
-0.034543320366147
0.900576913919172
0.049721999374637
0.710118941038069
0.820897767596791
0.144514054509666
-0.240519076127301
0.219782350281024
0.269475863849495
2.386366187569656
0.178265266928010
1.015102068058734
0.620437531376151
0.419923245336395
0.445469182148919
0.396381146198223
0.147830220095441
0.999094657638199
0.575648934376807
0.447581338700796
-0.639060739091593
-0.077679139652656
0.374950605205557
0.024978364365322
0.220348846535886
0.912714107027660
0.248798812973505
0.021368377078145
0.569215376385741
3.308156682191265
0.469980028649511
0.802184253605615
0.786315579269626
0.169745462545780
0.613882117810734
0.694415603236593
0.250958011400458
0.090562643328856
1.153226593018267
0.274736575979649
2.449399138619015
0.214116755838884
-0.631848865746423
0.098562882033506
-0.028576832405299
0.764276927930612
-0.154184190014658
1.380169396756560
0.506788402812043
0.160731721927795
0.094484251536722
0.511605959600867
0.452687184244765
-0.347128446940778
-0.228153600889697
0.412831815174854
-0.551953906374298
1.459767603650387
-1.380233079587718
0.510226060416700
0.971576771344021
0.412797560458753
-0.260629923652262
2.337629186544995
-0.549950680479809
-0.087120710868742
0.681523130803943
-0.164710875926373
0.123581328022223
0.756588373505022
0.298766801982800
0.148608611709924
0.337429586513944
0.918852368266114
1.160592340278091
-0.489581858650328
1.073580190687420
0.022693230886900
-2.792378855705601
0.710675362455531
0.187146038441360
-1.323660265079656
-0.144541304357598
0.847972197515880
-0.227132504398115
-0.161983996943641
-2.152002414496104
-0.443543596299374
-0.070128624208392
0.129562368067370
0.475491500191357
-0.134607085865561
0.365602719157557
-0.295812594625742
-0.866395234260953
0.313077291185704
2.438960001580427
0.922779362852311
-0.278745347429452
1.824752815257992
-0.115022084273005
0.013583270475065
-0.404508271616624
0.632357166179120
-0.174238292090669
-0.412876888469230
0.004762569655881
1.323143799454354
0.915478909142260
0.299883745905833
-1.835331864896913
1.048849084794510
-0.985873119019796
-0.579055385651327
-0.134835457278056
0.581002476127879
-4.914291965175432
0.874096430440664
-0.046183216501010
-1.185452738669543
0.996458653826077
0.165071769139107
0.273037587602618
0.274984477917533
-1.159868363116341
1.397405518341390
-0.402785294482746
0.665570752929098
-0.117000568308189
-3.637067859403224
-0.213534579715067
-0.351212962727438
-1.848685717940707
1.272049010018800
-0.284042836958416
1.002804848653142
0.444804931160892
-0.032461890271767
0.817404168248334
-0.447783608180781
1.274939942836039
0.171436458279482
0.047399797128303
1.049734938315844
0.672262708194462
0.602265101136680
2.092670328599519
-0.548287624370922
-0.100538354920626
-0.133632629479521
0.322179895869413
0.141000647731216
0.160663277729619
0.065607776303184
-1.799510401529177
0.587805067929219
-0.886910858772638
-1.396733122987041
0.156577626210077
0.200308848339047
-0.398414703468992
0.059125863805061
1.064022609836641
0.362745062389184
1.007949659651180
-1.005606500101353
0.113396392158894
1.727641363078991
1.719476859171325
0.578281183689555
0.067615086980555
2.105917361887255
1.197515631556266
-0.244496018036452
2.115115826938931
-0.123486231103435
0.296347747473685
0.390919541760424
-0.018221667311316
0.626192837978456
-0.014535862026165
0.550892663754027
-0.139536717521080
-1.908245481158807
0.029455510914739
-1.084848474665411
1.273433245833681
0.047654197610316
-0.455564436814581
0.471074319712641
-0.548751513011342
-1.288790582975901
0.410679534046086
0.390653241321314
-0.775336500576950
0.578191902828337
0.826475135623234
-1.164668297374248
-0.137023907407618
-0.290300635459715
-2.414311049107194
0.795284073516417
2.046387553822265
-0.681828660950001
0.271471043334040
0.982733019501179
1.430666705434725
-0.143408287255533
-0.321461150351513
1.511627245018133
2.005455694611574
-0.253581578618695
1.520434959821128
1.420111443076119
-0.042152184575332
0.807897161616496
1.896504375162348
0.521520815724042
-0.131174959248680
1.868681603854599
1.093207357017004
1.493930062049720
0.371241351741490
-0.098342211682536
0.268694226803935
1.457758696159931
0.177784414532870
1.393173421235637
0.012161808167319
0.479359311381235
0.775162017242576
0.144572014563277
0.663203348883105
0.177841034563520
1.534908282168552
1.116455507005153
1.109620774858967
-0.112393108790171
1.231218523285814
0.167500582436819
-0.091671478170618
0.983090095572698
0.020248161897595
0.382637738497948
0.122869546803083
0.101307765026402
0.013751326965853
1.503302467515103
0.510819757997268
0.048124771598630
0.287668952177790
0.718036560635420
1.071435936392406
0.133800186344774
0.564680521564034
-0.261319228593508
-0.993880443940480
-0.248645199299410
-0.272409351296145
0.546905835999915
0.003576267213078
0.864310124413191
0.081324852477261
-0.657540983446412
0.103784004995197
1.519613817776247
-0.022402856027175
0.499475975106990
0.498630408691585
0.078238727428423
0.275743362899050
-0.098259421585095
0.276045295490564
0.197033275863981
0.321153091479061
0.022528286581978
0.934240328352644
-4.918031935248125
-0.081615732847976
0.048565296828737
-0.551551845224989
0.060760936581448
0.907196005274391
-0.869089807170155
1.454879293506455
0.175168777526868
0.449687179035183
0.177092003397949
-0.481077722599386
0.752133038126090
0.024188162234695
1.816451975297092
1.093432249465124
0.024017691878622
2.187909778667994
1.169458156151059
0.038209596183396
-0.269438270458585
-0.194643759157727
-0.455156952639109
-0.553313135861750
0.289498135636303
1.029351348768633
-3.334763832140743
0.588689914885422
0.972884627288063
0.843809951164181
2.402121496153257
0.884813549829488
0.313912842342399
0.723904386560741
0.024219378308023
0.097097691699314
-0.301034612632964
0.084567345152110
-0.125016196562387
-0.046986150282126
0.581410862530744
0.225592623242761
-0.012698714680274
-0.331096349120829
0.134899962348844
0.653297865180329
1.135629470712076
-0.440289829016089
0.444611003991652
0.354857849535454
1.625219963614500
2.205136189880915
2.596992477152719
0.743164180744265
0.737153270070991
0.105271016690072
2.499104807462163
-2.473649525468700
-0.106281618886260
1.549495261014250
0.070116173657297
-1.790127736063445
2.220076091511919
-0.226139495065684
0.006891179711136
-0.053550524656137
1.309720804202237
0.170804156919064
1.133009080790078
1.333170947812202
0.457580464708016
-0.001445464589753
1.587406828660177
0.879272034805258
0.020955779586055
0.245082942293594
-0.173769118715360
0.732843783433964
0.281935055005789
0.320362309480591
0.162664512724008
0.583840658145278
-0.257379541933916
0.186764854672449
-1.001714366608342
-1.254422640967752
-0.718875061203775
0.279203235562725
-0.341183955112030
1.273904457979893
-0.260058797531247
0.373684272390296
1.309257736438121
0.614575631835265
0.744172584658198
-1.100709654488866
-2.834403378627232
-0.874985892234938
0.165796829694530
0.158586923131532
-3.940924261777941
-0.500172095588771
1.153939384619423
2.129539454386345
0.074929985861733
1.650140136577817
1.596902673845463
0.008768676964650
-0.748700028932789
2.020547702255148
0.330721740829431
1.516908481916173
0.040904016743368
-0.236880450788628
0.634719902685269
0.389533378695437
-0.033065240149905
0.270685625779597
0.174712075861546
-0.640719435531846
-0.086301658053911
0.754751091486339
0.434077975907833
-0.468584975930602
0.780978271134756
3.371460315935826
0.884611034667619
-0.009456574160102
0.484281542685230
3.044243626527270
0.152257764574841
1.077142317708569
-2.869203166460875
-0.981059045398595
-0.540749860752429
-0.050518587473867
-0.131155531781684
0.041429217463282
-0.513749518450510
1.466078798970265
0.078363164585728
0.057266960290014
0.722705098921484
-0.096421674462985
-4.113606160242286
0.247433736506119
-4.356406151944252
0.016179044652264
-0.541881220585051
0.141669686342391
2.573200066722421
0.644644550942174
1.917225223482834
-0.157570089463172
0.019357688886811
1.040221399616297
0.558262460113305
0.080049975455105
0.080193654679506
-0.256361764093562
0.117693526423497
0.212646717447245
-0.673264898721185
0.027408168711730
0.009174144699939
2.869797306010229
1.972728708651589
0.384440276863797
0.179851782666395
0.855026287237526
0.665452065331263
0.022602543748930
0.283192313108022
-0.609233590053074
0.085877942211970
-0.064932999684967
-2.910243503718613
-0.188362692472027
-2.652165155378483
1.142365980456390
0.872823960071854
0.817234023245748
-0.208162092940253
-1.381847003619510
0.530900055524327
2.946336242046430
0.337372355099581
-0.067522797005444
2.293357223382598
-0.211825920455885
1.241268997340442
0.922609473846210
1.541116299857001
-0.264171843719604
0.435235476516953
0.074513830875181
-0.852600476238942
0.845934123735233
-3.702332257405501
-0.715312952796770
0.109617027574008
-0.242277438272848
-3.294098244107984
0.207346537286404
-0.171413524772055
0.379353406635474
0.179061767573473
0.769287536632147
0.078605389012177
0.517475414598289
-0.286112145226879
0.121293202529423
0.075212061829430
1.110184151118171
0.405629762627223
1.100132072346434
0.065024161327757
0.441794789291804
0.168935437569698
0.117859398179066
1.218049497438420
1.860630671042308
3.804298851467337
-0.113207124043471
-0.598054414794088
0.874121186481132
1.512390413302938
1.835700329013319
1.975966844930991
-1.187232488555472
-0.452482699112055
-0.172634353451999
-2.259499560807086
-4.791357525159940
-0.035909865894530
0.839790602058358
2.570671431677674
1.214455432160636
1.599858440465653
0.463915859799794
-1.694323088755290
-5.322717655496644
0.796226256865239
0.343980940626580
0.241061198366871
-0.819944637849464
0.442124283508066
1.115862610547756
1.298247395175835
-0.485360780750510
0.288248702281911
0.069099433750676
1.915661414873846
-2.284227979723299
1.448013500324363
0.140117029585449
0.210022133659006
1.510071074576503
0.357451614159460
0.119490595239866
0.770930333749574
1.081935916953756
2.195766883515942
-2.170190290689075
0.072879882048695
1.018959962222289
0.275266337672593
-1.090344097211271
0.695858567781980
0.195388199278003
0.586688042447296
-0.474960755345323
-0.622090695624202
0.583513215251370
-1.318923480178523
0.236586832761253
1.090593389094632
-0.270436306739275
-0.232808707948815
-0.849493737081597
0.514530386211533
-1.371077207578173
0.117036707215808
0.157598842730524
0.118793847492802
-2.964747937206891
-0.280014018251515
-0.215780167560808
-1.823179727695057
-0.867318474029742
-2.667120683325237
0.110795470262518
0.913532642648159
-0.452451388199039
-0.254726612761290
2.027155826505965
0.612187230163214
1.140359797292255
1.104407649051718
0.192024392017386
0.706225217163863
-0.847167405680108
1.482821228810885
0.621626127085909
-0.311396961826755
-2.000126260749880
0.457857147303066
0.808374859086464
0.351314296799525
0.557827960967627
1.027637990732072
0.663324294787981
-0.062570410795300
0.338290965540830
0.140529210097212
-0.530963651379754
0.494695006615743
0.221915273808963
0.962237820598678
0.447170552939169
0.125017109588910
0.113141166801737
1.038757295228356
0.742883458300727
0.087596936491975
0.018698874700261
0.498889104016893
-0.492886435404522
0.981553321475012
0.631226035146920
0.481910208470022
-0.546857085819416
0.188499942766098
0.013472037079071
-0.357830526164234
0.786875753188295
-3.179073447274543
-5.063544858925184
-0.295001900996218
0.247929943574423
0.602781861879724
0.514797188175629
-0.796342467338277
2.236498684948466
0.156264804330174
-0.130643926599960
0.043589903725833
-0.781574830410528
0.157058262133402
0.451242625678785
0.167162677172113
-0.452994749639787
-0.047786830705147
-0.470540955101254
2.917624801301496
0.282147170607511
-0.271464287499238
1.343321771900942
0.375393031927905
-0.713485664680601
0.011864719198646
0.046904971311762
0.893093281339671
2.652796600519653
-0.252724744598478
0.650165693937849
-0.181301011379351
0.349372748566803
-0.254752279781884
0.437964251222752
0.063239743417560
1.461272509550518
-0.179859484860431
-0.285140347003515
-1.477267031665899
-1.959708340367097
-0.110992698457899
0.612981216350622
0.213432225100574
0.103494890536528
0.099231600517638
-0.213348917744951
0.614589715766194
-2.396325074747215
1.762091300909406
-1.577767031471489
0.452768463868341
-1.040140040551289
0.498941600990931
-1.124561059436982
-1.125358997756905
0.534002215098110
-1.089222732455906
0.523199970802706
-0.187946152125858
-0.103324500496730
-1.295213913568668
-0.135626215524366
0.595310021984590
-0.411032635084789
0.621049236958408
-1.695150082799264
0.010102550458404
-0.838279281117995
-1.424757278100257
0.119341443352314
-1.002079777072496
-1.078175964345535
0.249104608749120
0.500744848950463
-0.803722902086261
-0.878832167017164
0.338217329738671
0.138348018990984
0.275415117671905
0.812251336655466
0.367394322723170
0.220194558274321
0.014332895603234
0.694441381594578
0.453004230959324
0.304878355609553
0.238782212969072
0.577484639511806
0.313398144734256
1.400667369127386
-0.143177432747365
-1.620699817369223
-1.233949202696368
-0.298706533860658
0.387757864137600
1.255232369108851
0.529210911045507
0.149156772872719
2.899791221681918
0.109295788940487
0.156049755610438
-0.561798167181954
-0.114719820402593
3.274752038271377
0.007328336412925
-0.345735421732910
0.244062130287099
1.504567830036992
-0.393074424109535
1.611050505572694
1.730016882921946
0.046728517523694
1.214666320205134
0.613835126065238
0.819744907739430
1.469550967066112
0.449250901659031
-0.005812683878995
-1.005103653519725
1.461968023409685
0.831977398686902
-0.021052682857420
-0.513932628465132
0.244521649137899
0.425282219559815
0.074677974272739
0.541373726516035
0.608334061507693
0.049004650100360
-0.261157410124496
0.137673130063075
1.067948031859448
1.966424350575227
-0.103692279134529
-0.855163846629786
0.979274416429473
1.254848037157817
0.249275105583025
1.539381635013688
1.260568875748489
0.246340381513621
-0.364807202072269
0.073233754592008
-0.057351842334510
-7.887389368440108
0.261567161862782
0.092536012465753
0.051704889268847
0.000103802236016
0.168103208181868
-0.096854006406886
-0.547216463538182
1.893193154825312
1.278768575668812
1.977336863221800
0.048078057941740
0.675210383446994
-0.510196826033142
0.063013954588324
0.264305675408990
-0.146004523349356
1.237020406914233
2.070119454454595
0.637693807295170
1.356557508254252
1.949866305681893
-0.164411060572330
0.596207240934290
0.982239839563329
1.709222459251898
0.520890223755077
0.633719939445418
-0.481950504168818
0.506731389167796
-0.350844267684306
-0.905182018653570
1.541194382191350
-3.357232145277359
0.158231511023686
-0.781202486136024
-0.912560500211310
0.132684384752657
0.164943090996724
-0.251726675587923
-1.141041318961877
0.503810628889756
-2.706404023426701
-0.079585393884094
-1.741140098706787
-0.316461713416203
-0.088347345197414
0.616591657416468
0.662371059172938
0.662611329577355
-1.184372926971526
-0.925718145888975
-1.332614154367424
-0.515906209529496
0.232146349256428
0.788523482016418
0.121515301224156
0.500763917048734
0.051499895664816
-0.282614046709102
0.552401079926325
2.044174566535277
1.273943809046826
-0.144753298692294
0.268725673553165
-0.172759412776345
-0.080664481143209
-0.002507740878265
1.854466212849911
0.547287365214432
0.126811951725384
1.156096995859390
-0.200488220742893
0.513604792364370
0.008517179849628
0.056989264493801
-0.001200461269293
0.024991011986649
0.393604425171515
0.141352326965197
0.289974252538835
1.521557931223851
0.464926810771156
0.699985171338452
0.208593969544910
-0.063790396284991
0.145066834751182
0.312030710231633
0.496010960698303
-0.128168569063764
-0.013509121304394
-0.075748555716026
-0.163259153606562
-0.143116297511413
-1.027190655648144
-0.130828898297218
-0.225353584983448
-0.363951496064502
0.296374499668279
1.130754658109636
0.099472064545473
0.433033033133970
0.232986337086019
-0.159601403796665
-3.889301611677769
-0.426398676656430
0.001233671606324
-0.125328040820604
-2.610567280710384
0.147932502353424
0.681087261227929
0.717928163993653
2.316591837383949
0.132235889108751
0.478671949553123
0.570536638597326
-0.137630483525567
-0.426617419167011
-0.417613380482883
-1.388852218718122
0.574989189825594
-0.290190947352877
-5.158845599874248
0.092330888517769
0.203894185527021
0.834971561563234
0.669852714907708
-0.898524169826165
-0.223805721171545
0.154644309533922
-0.557353657158228
0.804467750135561
1.053468228589589
-0.566933889250791
-0.089795674072996
3.266761565001982
-0.750328841454596
-1.142883945334476
0.049908777458590
-4.582046717035005
-1.235268992343192
-0.193843990505441
2.915421221321001
2.178357649825999
0.013591795125011
-0.154356341391687
0.296637237743948
-0.340418686256715
0.566347548800832
0.987456395596580
0.148035988282537
-0.255026421658023
0.681262032838938
1.614260635479586
1.729113256654573
-0.339527072799452
0.235934771599925
-0.625789508289189
0.748414361119939
-1.370964445547614
0.588343834157712
2.958633990111965
-0.623722188659280
-0.406164579688252
2.932298475628666
0.525837458478776
1.066366737955797
0.073718381476883
2.720437101015832
-1.188737995085825
0.399679926170564
0.766734061995799
-1.727195196143454
0.641981914161752
-0.569738307379328
1.267472093359626
0.035583089576904
1.285583352720048
0.181478548614099
0.396356962171605
2.531205265788408
0.229048962852641
2.137879209941663
-0.427593221935957
1.095297070881185
-0.208752166359184
2.802253714564757
0.532977381678182
0.029643337804050
0.239511704750074
3.122329407571929
-0.260437890303790
0.554901127465738
-0.188840633914267
1.570726134306091
-0.322907936844054
0.202232579626071
1.347317747200705
-1.438406204289313
1.198661546757583
0.210486973237323
-0.518359418588420
-3.424726435188095
-1.096863965889309
1.236751634377403
-1.500223729875971
0.554031455540374
1.025653587470182
-0.317682242067647
-1.516731678328616
1.179546990335750
-0.308685076169318
0.013487281316852
-1.849389878890199
0.096342695063774
-0.877366864870511
0.064176798181906
-1.949710056490877
-2.257387883998332
1.535994479639816
-0.178936245453900
-0.208927964385958
0.898740651169907
-0.148647031934950
0.107494072527909
2.147137244573170
0.568334958783544
0.221572675306680
0.261317090174069
-2.277492974721277
-1.732256200343981
-0.557834160844954
0.327802263220681
-2.329283198772121
-1.044068531601484
0.587173181986772
-0.789458815617949
3.667530287518643
-0.267950332411511
-0.140184758410203
1.927716993644861
0.925026195101951
-0.491854552362004
-0.101654226505383
4.041663984957706
1.318770638754642
0.048510956765077
-0.366879453962393
-0.132711433724064
0.505481541407275
-0.249414088536709
-0.045399867750305
-0.344621726311950
1.912292699139108
-0.493336970101209
-0.549750668146301
0.561376890393281
0.365805388617342
1.236972578580110
-0.724949997709197
-0.014136250393262
-2.265403818776337
-1.701820841892509
-0.796400765324547
-1.762177202966664
-0.073834904529639
0.739139364025865
-0.500988314190651
1.645630908468464
-0.768901079197741
1.731324896970060
0.013592010873477
-0.115546498559335
-0.061911439092011
0.347400705888209
-0.326936192594928
0.769462834599634
-0.259043796813732
2.021587999763568
0.032134539161628
1.043791932735566
0.188683085488434
0.887121172483334
0.234049997045730
0.049812719094107
0.544080395440210
-0.652565212373253
-0.523033414939038
-2.125526625260240
-1.538150826070063
-0.603394420421114
0.804548658283121
0.252082211589148
0.650525281158366
1.080971422296431
-0.274055926967253
0.557283093527442
0.768880637699971
3.001180505081469
0.043772886806964
0.654222787345382
0.159200469400608
-0.223168520352700
-0.333584610002228
-1.460812086846460
0.001291656433142
0.709307924868879
-0.057659499486293
0.185402559114198
0.004043049935486
0.298494736603309
-0.371234070223428
-0.062267843515881
0.991729975679061
1.130340994654643
2.801051745974699
-0.062018924280165
0.339495844249715
1.350150074236713
0.343407444670279
2.313368911521456
1.178718096810366
1.130423870188761
0.344664948425489
0.026335324205908
-0.277491995171621
1.448087348434988
0.397552865191551
4.637045394220751
2.152705510200810
0.143718173321610
0.797533337619430
-0.636791423832336
-0.607455059374158
0.232325576477080
0.715841987782307
1.096508013772340
1.178762444826720
0.377415325187077
0.725279625428191
-0.075294403114139
0.511678002235368
-5.769753196972881
1.017196161258412
-0.269466597010646
1.452309594940785
-0.435052012527747
0.057805761420359
-1.767795146432391
-1.035004722326618
-3.334421422503572
-0.358139881587233
0.494755779985555
-0.476773947840190
1.516171953107484
0.080393367133047
0.553845674710901
0.032874452379244
0.337820913278302
-0.948561874544326
-0.248268942431609
-0.166484983303263
0.573265252275823
0.209770158809315
-0.058176196927371
0.536022334431493
1.410905132233494
0.171611510542490
1.462158574329429
0.061513149157558
1.007818144896556
-6.657356496020311
0.664092973608632
0.022723664570489
-3.673372088260363
-0.460944947711554
2.643680102331813
0.553619160645069
0.897860756570138
0.972842742417822
0.267851367090768
-0.208029690714813
0.309512070090657
0.612847526962989
0.209464743760298
-1.816572617457429
0.209158682319904
-2.175193715715877
-0.088244320397312
-0.119699753686817
0.172955611303304
-0.064387779788579
1.525694178711024
0.327857081331420
0.140616612674141
-0.275192524167163
-0.037266382397489
1.160718000064809
-0.341335160089367
1.136459745753958
0.165322927810836
0.397068552711747
1.002648919571864
0.001372613699280
0.978407553629023
0.754207270728307
-0.440651952902520
0.274960314701851
-5.306473129045142
1.492364227659922
1.163948435681926
0.477673183299982
0.594417437173398
-3.966340616586902
0.040878216789476
0.394605682091403
1.310335544495622
0.220089947243135
1.604171451700748
0.313492252684615
1.226978465896766
1.115767145454981
-0.280677056881081
0.308970583164839
0.964095576068299
0.136184773088378
-0.527745091189984
0.847503862031034
0.029770119878440
0.205396697658527
0.473106289613090
-0.553490250183781
0.264429746363164
0.076251798875337
-0.752410875189167
-0.101344509405901
-0.095107840097312
-0.384088496092979
-0.417134048059225
0.701580748517733
0.068127950881102
-0.150913670954660
0.809572083057616
-0.175892318415577
0.679770617849009
0.008112327921389
0.200996323151314
-0.667496855832177
0.596198611574935
0.344130436387298
0.022474874736752
-0.363566108245206
0.757144709153123
0.041397320469060
0.395460621325942
-0.637192539868778
-0.897785314039359
1.124011736632742
0.187951341736873
0.345646051961384
0.247403361160242
0.133301735029741
0.153847124556470
0.503329321308792
-0.045871472912817
-0.156578916686489
0.459813686591506
1.192559373674595
-0.330449846182127
0.954818482895913
-0.260605779376039
0.930396771105934
0.484905158871555
-0.563185014987488
0.193364920858503
-0.720595808325219
2.918674198332348
0.949027009201401
2.016737986370970
1.552860642740750
-0.318908573160320
-0.893742444832915
-0.575484591584994
0.124289386659969
0.691813895384514
-0.165563989426509
0.781253455662311
0.113298884485742
0.618048114366752
0.099753467854896
0.454013703812058
-0.695875885754005
0.455679063365025
0.357421550633618
-1.018852255627353
0.042091544092851
-2.019456870630122
-0.278614218453448
0.879131865433391
-0.939242006448764
0.310313146844749
-0.275472467316788
2.135901332605177
-0.615542972147531
3.246271194018131
0.289999443248303
1.112857102621108
0.283447301424113
0.378171777850026
0.301927874293563
-0.576533682429230
0.234112723667188
-3.067373475980001
-0.045166148943611
0.761427860190297
-0.990440236674269
0.145499515136409
0.014007905682226
-0.290405064164446
-0.545722757964694
-0.135688027160129
-0.178754370995514
0.669436002624148
0.064999240188682
-0.094595160270881
-0.121448646223578
0.020852174679730
0.182277484487749
-0.159043829269556
-0.269035283620912
0.053698766563348
0.687894003016844
-1.164677711796643
0.528662815481615
-0.751794132845214
0.328627356374225
1.174213291384780
-0.081559107426220
-8.544860416751678
1.128850653997047
0.450928553005359
0.046027863019061
0.078255652593141
0.395263061130281
0.362259803423245
1.864619971651835
0.203572719188126
-0.021369811782550
0.487504772140829
0.740293461735167
-0.028873332117013
-0.045278497607013
0.724619955503213
-1.233154486953352
-0.606659465091163
0.334637277087824
0.247595207183551
-0.834014491285251
-1.112846907189368
1.853940481644613
-1.589975527649294
-0.313364343004496
-0.412692484964982
-0.451203817283737
-2.127489555227005
0.594229090610726
0.018622717725207
0.587000253847670
2.721773411224437
0.717334939428476
0.179367261134598
1.535450031350795
1.374388194467949
0.530248070190973
-0.375646704761980
0.946392447152678
-0.167916282148430
0.092070076464822
0.587234639288237
0.013202787256594
0.006391654520889
-0.113096801596879
-0.073830840241768
0.448887664514342
-0.130747419376403
0.969058410590311
0.042993269357656
-1.246069626934133
1.831132537845518
-2.614050223275010
-2.257363329733371
-1.714460406654161
1.655582682848647
0.454016007385366
0.046324715228574
-0.290400518899743
-0.464198374691325
0.199589167851669
-0.060575366381402
0.305065408409851
-6.332599209638492
0.641588439059163
0.956628087738384
0.208779386945931
0.985776231752356
0.074561275521518
0.448750875991340
0.206448730588908
0.170126893971537
0.402213463428555
0.070991608023262
0.613474293952628
-0.970957607857355
0.101335861314468
0.008504052190095
-0.160423974713282
-0.023497896072730
-0.086486922050092
1.035936321532315
0.541644129326819
0.667796025330714
0.249720674832202
1.207290935563559
3.248512005891260
0.008041081122886
0.153185205341395
-0.507410670369112
-0.087785236739684
-0.238208283772197
0.299185355218705
-0.727235303003081
0.582169403928492
-1.241618378972263
0.696179140870655
0.350311482255872
-2.858786152537531
0.074849774925712
-0.727564996913252
0.228926417954320
0.340522267988831
0.862153102842967
-0.070472250486207
0.802121873342019
0.988159494895724
0.483078206587346
1.464642604621031
-0.355802888778621
-4.058286337370229
-0.180023789889736
-0.162170543848250
-0.640557815230559
-0.598636658073883
1.116775361724014
0.365446520743745
-0.160081158844540
-0.425650671613761
-0.379997676518398
0.691697167408542
0.833509286702037
1.701570011002089
-0.804807624347497
-1.646012396862993
-0.799969609414644
-2.605622816651602
-0.381488379411633
2.191017855330764
-0.583198525707671
0.100486958530745
0.224534222542258
-0.396477051184083
-0.022066415355004
1.257887551453289
-0.059441901306284
2.275850564187013
-0.006176405806506
-0.101333108133300
0.079605350275025
0.476332202051755
-0.669793473999491
-0.198118943460413
-0.632485911732447
0.359190093155189
-0.175110668468670
-1.226016923142639
-0.632072907256704
0.713950175942180
0.247069750807442
2.243865622279927
0.013533178099758
0.093982147445424
0.375304918042038
-0.456536626090864
-0.332060801432253
1.994777437874386
-0.032051197432693
1.646491702399447
0.921019083891182
-0.181706517814882
0.422954897548066
2.081871743944403
0.077721114264576
-0.291896610435944
1.165892047819221
-1.203591557960715
1.542573024532941
-0.091414552594767
-0.102572874800215
-0.422638655498719
-0.262251467066963
0.365920169822557
-0.717917897692278
-0.763872436385974
-0.330371257429060
2.369315131654278
-0.160822709921539
1.280590457657025
0.797530572150882
0.979129550184073
-0.038696185818302
-0.142114994381968
0.522000671671798
-0.869748384279958
-0.236018398631255
-2.759175421739688
-0.569754446362202
-4.744840639042309
-0.370351695625351
0.028332608651137
0.674741292393239
-0.220953690378763
1.574877196033773
-0.023294541277987
-0.405429445226148
0.123795293412445
0.383456047242245
-0.565467854546347
0.697888032220368
0.649330668241157
0.827772162955096
0.043971907618152
0.227269022626709
-1.236427896499832
-2.025256723246404
-0.498716574712649
-0.512794494038943
0.990153476252798
0.013476970801863
0.017916326168027
0.228847268136589
1.010214656440974
1.398129148013927
-6.169797654072111
-0.279403818796129
-0.138950143691679
-0.393612564152409
-0.236025333052897
0.977855929754230
-0.148463002545067
0.382264097190587
-3.138923621201432
0.144456778221902
-4.146599462578584
0.122259438439611
-0.173407239834208
0.457457303859788
1.120908545861425
0.196857055644319
2.241810311150250
-0.124207069941261
1.776030773245501
0.399088759044038
1.422693447084029
-1.453609372959852
-0.550739323671575
-1.412620293679897
-0.234244965558939
0.585535549008810
-0.248622716527045
0.232342347393447
-0.649194233896268
0.149569152128350
0.241624346159536
0.410043471894993
0.270229114529887
-0.318761513441843
1.112355698659882
-0.195001218854550
2.011758612304610
0.422513124798007
1.218359471492517
-0.086297059697999
0.977328864680001
-0.779552363699039
-1.434777203085803
0.452984095137819
-3.798114392718815
0.139610038989141
2.633642448415044
1.021362212698516
0.754840411092361
1.759846302965178
0.114873952568707
0.362181265806785
3.190037342011615
-0.286997132510472
0.024726329047817
0.095798082051733
-0.029333323124980
0.391711750965763
1.530033765818594
1.287156623030064
0.006470475957157
0.058624755941013
0.047858860940942
0.944311285849303
0.252592559662052
0.158594205147809
0.754550609724071
0.052455664183354
0.112111347049838
0.530485520813113
0.446266425720870
-0.028312238753196
1.792292582782860
0.051644685199493
-3.788338991473040
-0.436788559162520
-0.699713645475517
0.295921354471103
-0.541846005035710
0.689081408000427
2.247694283411039
1.445285135755599
1.101746794449254
-0.313738702211558
0.208400876741882
0.398241666132972
-0.362324251689515
0.007515648420813
1.602739485814852
-0.270157197136885
0.759542404782207
0.087559337262983
1.086950259525415
1.834950445412431
0.539031239269981
0.915075588738999
2.463611587384812
0.937799290612355
1.091794751908407
-2.157035199511908
1.141988090917372
-2.620273562084221
0.569176005030058
0.095826598911168
0.183339494682298
-0.297669559137553
0.319474885940710
-0.204049636931951
-0.486379339654954
-0.593243151844848
-0.279774814875463
0.066767236487912
1.271238262251554
-0.071659631790468
0.809260337272163
-0.269354069335357
-0.068557985230747
0.251629535607646
0.187290881825882
-0.555990092313026
-0.466270138665729
1.650008995694615
-4.672324815762252
-0.354419393545890
-1.055118549981041
0.256741324760420
-1.881535878182581
-4.063272145413299
-0.104508174585465
-0.347586618661543
-0.829110293640949
-0.327621252245086
0.111662475086457
-0.029006064075887
1.414657398396378
0.329548256598721
-0.005854227718570
-0.413572961416525
0.044331152100412
0.656868136263254
0.560692978059833
0.297163016816017
-0.181678175641188
0.108469943247202
0.100579351906044
-0.818828876650050
0.028666426296327
0.051586087172684
1.979099766415076
0.252020368960038
-0.826098203100216
2.381710295174869
-0.001712808114143
-0.381440097436234
-0.040087497256001
-0.418502601489004
-6.097553500040260
-0.018883244132292
-0.305528315821811
-0.013687254399988
-0.196169903891038
-0.134455400869945
1.030503081118082
1.058877108531872
-0.148190473622738
1.946718004831442
-0.496747421956359
0.072254604562723
-0.289916183706897
-3.935882315455306
-0.259430193497977
0.395987736590747
-0.884655595165382
0.149375693619711
1.716766491367633
-0.156627304794575
-0.189958408606584
-0.043471968514646
-1.131509117647884
-1.243372010780115
-3.129148818456462
0.046252061813744
-1.711795270122652
-1.036687214670594
-0.974181209209701
0.089566384809300
-0.028504029709159
-0.073386094745680
-0.073318801020999
0.059479676663603
0.109329308723886
-1.587587414615559
0.235104803001659
0.056639398241227
-0.497136255602583
-2.042713835599829
0.330018119137655
-0.127263096230186
1.360289451060844
0.500600162383239
0.454286047556930
0.303344417832251
0.243632408713118
0.175358053483984
-0.261225305845647
0.115675760242294
-0.503501051521046
-2.137546079364432
-0.029869234331705
-5.419143053450652
-0.001768090414601
0.139433808436742
-0.551812081130053
0.311615937294106
0.154536761971252
1.291029533589061
-0.248388215578814
0.677777601993703
-0.145366398623130
0.028076389349510
0.082010556122255
0.166432576354014
1.423095318275095
-0.077431416459329
-0.370679758602046
-0.153718589036277
0.772660784356500
0.048536933107638
1.696571931993593
0.721340395291434
0.599192688872733
-2.757388646654864
-0.032245817590818
0.783152182586406
0.547719701722956
0.257593346706814
0.345446379432298
2.265893035300001
-0.210098639984526
-0.117727814807942
1.169921891077335
-0.512608885048412
0.240773176899497
0.749101429279082
-0.148840609677345
0.013100334812040
0.270123004030687
-1.764372484778497
-0.468446662822210
-0.705456347892131
-0.403339760801911
-1.918163112029155
0.392381908597644
-0.581948822183464
0.826337444674506
-0.820134295769112
0.082398287836043
0.002781968566313
0.117434658410805
0.191796279051869
1.989374382524369
0.281046747163722
-0.137524902219089
-0.536102137917790
1.963043140325255
-0.450531314615382
0.427668591691829
0.079770220031145
0.239025246519392
1.065255096387996
-0.171285467272924
-0.227166474894618
0.803637970446560
-1.543021616710619
-0.279248801697717
-1.809435672800545
0.072789916080155
-0.075640221932831
-2.649442637251092
0.186838291943474
0.540341612023718
-0.551632225639753
0.136337782700817
-0.229509606102691
3.631907819397419
0.929717539099376
0.511425762990023
-0.097151430227658
2.775125775960993
0.012993574879733
-0.074298683239977
0.103782987721177
0.520051774377433
0.870469217209568
0.624806439437446
0.141009330627857
-0.008851072921318
0.111600418486123
0.986110464883584
0.393322203796053
0.675109736407143
0.026094112202605
0.267519377551987
-0.097587889428989
0.126715590381193
0.395420160398986
-0.829555190150330
-0.060934530954305
-0.311376650257830
0.916342194124867
0.684907979640496
-0.144512858930305
0.030257913200520
1.014874080711440
0.385811254823330
0.184865911995911
-2.476524143485992
0.553630627919964
-3.610682058117092
-0.206907076638610
-0.704432586981736
-0.404838367476278
-0.029071784918632
1.000277696418295
1.039229397255967
-0.255691213917067
0.023762682186423
0.051038282571597
0.216069254444925
-0.105896364715444
1.135541936524397
0.579233153425024
0.316230065744170
-0.210692811488834
0.616425858757697
-0.123128136281831
0.023798192228524
-0.178077845404263
-1.537854999775874
-1.289571957164273
1.467938142754094
-0.161268798868393
-0.114616403900841
-2.273605781811440
-0.279449067316569
-0.047614683608520
-0.985640083687786
0.439938373610386
-0.104352583098693
0.047825276489411
-0.151135896618024
-0.336030596197429
1.099022818431027
0.378720580867716
1.835654527246265
0.550413629437483
-0.376614671483560
1.423354607664634
-0.689799541647750
-0.054398137630016
-0.227463253749879
-3.345903139132528
0.005797979186365
0.199207892376927
0.128013051089577
0.146329584119931
0.877769119523060
0.150218644548722
0.284929949439528
0.118726002680570
1.219265562445341
0.390090584186756
1.964503578462891
0.310961626001044
0.671808578259939
0.201537513120881
0.449709981001551
-0.158229981873109
1.803042173477167
0.965140923975485
2.370585221019744
1.495665032242638
-0.265611414014124
0.086039104561090
-0.084243176232656
0.033136778897318
-1.380971884839790
-0.380688915521510
-0.220864962693329
-1.945434584876076
-0.127450126029986
0.104244962162102
-1.684106049853187
-0.189552837429492
1.070440378119286
-0.107555164202618
-0.230057302349598
1.016380351549786
0.267755985139859
0.158667755829150
0.028503210615331
-0.307584535420957
0.544218686750134
-1.017506315670401
-0.336836668929074
-0.636560820208963
-0.017339162256540
0.139663133240276
1.724660610535980
-0.081777725079105
-0.436433494843964
1.503316117337048
0.004180658633929
-0.619663039998123
0.028820631838359
0.004381773764519
0.330397569238182
-1.819841264428034
-0.189989358419042
-0.785502976397160
0.380468726409583
-1.871927543191206
0.589511972076656
0.559975155556739
0.428609612447583
-0.456169613177681
0.089536411268596
-0.468032949628893
0.254449237011416
0.265050947594057
0.035705276989505
0.227201050516257
0.159729507516433
0.097529330120595
0.134278375773221
-0.125020916281659
-0.343690779196701
0.052805613375477
0.036503688715066
0.086452097996707
0.851689472837272
0.183573975095874
0.727510770123075
-0.175794431777141
-0.533381245755351
0.451476297933067
0.618179074332380
0.221607067146131
1.151375778283669
0.608574148585075
0.129400243570834
-0.173520251939476
0.069611591763466
0.618587447431146
0.962676862625016
0.234575199323027
-0.369843149072912
-0.129979318415990
-0.302643139197856
0.454053460839243
0.233927759443628
1.579078672271681
0.445545471826040
-0.224445751875508
0.083818133547753
-0.300043719235320
-0.824672084253671
-0.005243403234879
-0.103547664888237
-2.433974910383524
0.003016404273829
0.855934529344386
0.129411242243298
-0.579187152234206
-0.555700003058799
-1.145015796841231
-1.064160629778182
0.005296976805743
0.048162473459025
0.512775166666707
0.360965235499883
0.366047247604395
-0.226508947120853
0.384371126948810
-0.194820809372249
3.788951968254916
-0.031081466784138
0.626205534850707
1.551970706602528
-0.262895179493011
0.597540005824262
-0.140514711978441
0.153896771940695
0.811442158493386
0.081101396338007
0.686743973992733
0.292274185475848
-0.194290316342258
-0.816810798449475
-0.070137446879932
1.353038963809626
0.003164143450408
-0.091723431046782
1.690836910406369
-0.196849065251908
0.014270936096826
-0.291038118732037
0.132741441974684
1.392797985591037
0.278481230862635
0.089093637317305
0.502176876846107
0.877218794855435
0.011234339132594
0.317389704837202
-0.078519681978601
-0.238844951509652
1.167704943100844
0.049232691304094
2.337607165330367
0.058393178370075
0.718456114873538
-1.060825543924087
-0.311076481225604
0.472232638890949
-1.984977777928015
0.200147551106190
0.412779082534288
0.648596601796177
1.584287555036023
1.336835538568993
-0.052867787243607
-0.245057485417235
0.153956343038119
1.229011625182830
-0.640606617000363
0.369542411463225
0.061129523816556
0.328742070892704
-0.005609462424704
0.872305919785194
0.056376055521218
-0.249367301417977
0.338857729822100
0.539129370017661
3.114621140054717
0.148806365385419
-0.597191518748713
-0.019611265599576
2.810643970561429
0.242509148438601
-0.064471456943407
1.791835532986303
0.049828977359641
2.204672165289017
1.109268875056268
0.271525650122184
4.045150872983947
0.934299723319465
0.116449510481158
1.591258376017729
-0.016851718143664
0.672953551247796
1.238235869362960
2.249552027484597
0.442016703597190
-0.093973512560714
-0.358905093901436
-0.277010902622532
-1.014837328687049
-0.432844851120858
-0.982804084674893
0.358315395232928
-3.355538054251937
-1.565392822446132
1.196035945102555
0.109336044558885
0.341880507934296
-0.392611952335217
-0.172441203589078
0.439898769832368
0.041278385299539
0.555186635482137
-0.114364926612503
-0.069951568784686
2.056152789214169
0.143030906990335
2.084437704630869
0.227986189840113
-0.008433833478836
0.183837113541651
0.689813977693142
-0.960417014785599
1.174871864853436
-0.034898687224886
-0.234214176912010
0.396370987820736
-0.281385496450778
0.806047248655603
0.062310160201258
0.235421569175652
0.137241006707092
0.545123724358252
0.502936515147570
-2.113484748612152
-1.249650012794779
-3.511858398633655
0.213507881208341
-0.200389738773069
1.417697969706339
0.978352682114451
0.311944139083196
0.695190784701691
0.846694474137881
-0.359516799368223
-0.646117700238022
-3.930764740279517
-0.796731578516605
-0.947844974553450
0.466602451740657
-0.380894880452247
-0.398985992777593
1.443548044111047
-1.308886597214138
-0.414724716011707
-6.376352886037689
0.182216541460902
1.034016962583391
0.193479509158056
-0.028526814220256
0.038560387869072
0.124912935890037
0.005571643528479
-0.142289365500788
-0.677834687609784
0.781040012098517
0.102830939756829
2.104050114898880
-1.891155540427937
-2.767841379748751
-0.894119243673925
-3.250458641048683
0.535982544394622
0.289640236776436
-0.926179766979904
1.647230542844988
-0.374394751211141
1.764384330877803
0.856938224447410
1.770977131293958
1.948533412828195
-0.472649158878495
0.497137168588644
0.336028301770867
1.433064841826956
0.217978574981068
0.266802226385786
0.757098235093608
1.473035050337466
0.130207313286233
0.570506171439711
0.302942421439569
0.118484671249118
0.336318922573854
-0.626458641841633
0.350011772192890
1.161007539625517
0.271638015930180
0.090809291823816
-0.491501746992598
-0.848316846715410
0.554917208454828
-1.146955845446158
0.142805329454730
0.561914626537915
0.053125533222446
-2.203537757051061
-1.906008431359582
-0.347300745719502
-0.060543158059602
-0.782659966610144
0.938017747866980
-0.022414324564956
0.571461470249261
1.819057608457098
0.434726789796069
1.422936427914144
0.119555507380406
1.403308025748786
0.135558786076257
-0.548087425792722
0.086290273623540
0.088345522777112
0.134669120622792
-0.712996494263697
-0.068321856207155
-0.518616329133082
-0.686872799201068
0.051882145525468
0.301447302586800
0.115083572931846
0.594766529068787
-0.412955450674411
-0.411971716474233
0.037395156145460
0.533667399599752
0.564011610113070
0.080966007327075
0.058782410514537
0.415871637053364
1.233201871938791
-0.030474015315770
0.490841558261010
1.413320202480224
0.273894027345175
0.132170961284572
-0.101847616380786
1.342210150034417
0.433162605421236
0.519397092596477
1.272932668673809
0.293074035989800
1.570688825334469
0.835585370841989
0.379282652758762
-0.065923472915105
1.394150977791349
0.343662805843810
0.389584088656320
2.975269232455635
0.677755377050650
-0.114801450901932
-0.310522774275578
0.130242379986866
0.833121982498662
-0.306980648249075
0.505323816174953
0.644109950744736
0.303152601964389
0.474884552943409
0.038497754598910
0.311569349432360
0.131733936091035
-1.029781302615644
-0.706858716428247
-0.355982131156160
-0.906060147104856
-0.203487420875321
0.748724122234896
0.041480313143035
0.535929907511488
0.283836256855942
0.135370588400198
1.025983196246443
-0.108986963932892
-0.229704173617774
0.162946935726992
0.545490491869690
0.197332230625024
-0.333505299837376
-0.489815449083578
-0.233068474312873
-1.346110155898537
0.619067428396830
-0.057519067464909
0.818928184424350
-0.075873669118478
-0.599469677580110
-0.227887610386800
0.701484773519274
0.839458239837017
0.170401275627910
0.613129654552492
0.911119433433633
0.051148538726412
0.230917466346097
-0.550521262221308
3.681202934134584
-0.523660030774718
0.038007089263529
1.186063398607146
-0.305062623543296
1.119340588247221
-0.104168186287159
0.350054895364340
1.211932634535567
-0.037102805493840
0.152686064825986
0.501532337254806
1.044562657850763
0.286416407683362
-1.914504740634158
-0.374735849069222
1.682559282163673
2.786972756094893
-4.487426390022382
-1.915113929818929
-0.860590107546612
-1.342241152746610
-1.795599584987587
-3.615873134766925
-2.715851611504589
-0.658913246767691
-0.257064738130034
1.004647166970264
0.103883699844126
1.327383907302577
0.661410279819754
1.644096011606057
0.668634845462438
-0.394182582147828
1.283367616376540
1.880006959944736
0.021820899886282
1.113757628821214
0.904126327379598
-0.307639000056844
0.048333342265824
0.732992778456200
0.146110785873682
0.159132216525997
-0.226923234735638
0.945549450152754
1.994386126198688
1.431707935425585
-0.243866349177211
-4.531791135072603
1.032377805311446
-4.129753389114762
0.212456739497745
0.255721038029054
0.016621425710135
-2.034261350207438
0.081425313498841
-3.713256949611510
0.480655887363120
0.765639662711248
-0.853855656404385
-0.003128073277730
-0.203760526018214
0.001203161987309
-0.224258475757584
-0.533165059050872
0.686995623589484
-0.401285501812729
0.106539279078643
-0.128015106428578
-0.448541810861286
1.681262023591420
-1.317076897341163
3.157210380435439
-0.325434470095389
0.060987814554593
-2.349674601399628
-0.255907388902422
1.548047797541491
1.649054248245188
1.282687858168051
0.076620606278388
-0.470476302800965
-0.682489632981515
-0.026993139542413
0.834338299319636
-0.455491325661461
-0.389219727852607
0.809459145910915
0.586661216755316
0.014463714635090
0.150544162475077
-0.386711483627941
0.108229619564171
-0.676518214495070
-0.124224345470345
0.063137425034709
0.417171397939062
-0.519691765955379
0.047464467742669
-0.335304548251056
0.306552422386254
2.417315794170507
-0.446471896967314
0.037464511633679
-1.424408493154555
-7.370301893779503
-0.081191134056486
-0.272412280991455
0.147754603444119
1.651957778778949
0.167899473267856
0.584602323981133
0.150168391094004
0.357819587630746
0.182668481526414
0.293315321625094
-0.171562380385969
0.154987367273002
0.485939624175392
0.376737297789488
0.288457933132677
0.737127401603371
0.268887307121622
-0.288652960501986
0.003846017340710
0.426003080458936
1.962081799562435
0.684010343536245
-0.414205465047972
0.792938373828063
-0.244577122158335
0.796645985952525
0.180778540930737
-3.834831654363422
-1.683386949205196
0.045451225000869
0.454100102290709
0.637207032377648
0.105465030806434
0.360517395745695
-1.376768355777112
0.049721857119326
-3.438366778974105
0.515343747645833
0.396094752597551
-0.555342571799987
0.093864242583135
-0.405019878857797
0.226047156008182
0.185530267535997
0.138551642687585
0.466303407380390
0.310872227139419
0.600095994115580
0.296458163517452
-0.513145404346999
1.249531079486755
2.699623191319775
-0.022616415680485
-0.131019428063142
-0.503868319541746
-0.407492076125161
-0.234952842006359
-0.706707287155382
-0.174768149428134
0.022444881101582
0.720188543358607
0.357136159023192
-0.435171090205744
0.486787862882581
-0.137619363198979
0.134500644796589
-0.326112152307626
0.414644477804087
0.453982573437632
0.441941080376856
-0.237291937162685
-0.002694320074189
-0.268935983885064
-1.921817317760570
-0.568519505229629
-0.723107468102653
-0.308770624326899
0.448239774357672
2.152375469109804
-0.179079921464424
-1.315689213066362
-0.934893019469343
-0.415396521832928
-1.145360400574112
0.207803698088069
0.360920476718958
0.057208674888154
0.099026071235707
0.436437523997174
1.393195859091347
0.061469742610200
0.321122945331039
0.264082894593106
0.427482558592846
0.052239685185303
0.196535376868622
-0.363129237166667
0.944059901250434
0.058653666321961
0.046186346875094
-0.597009170181691
-0.105481944380515
-0.239261615199682
0.146680781300110
-0.064614663577030
1.147749451571012
0.851166288430062
0.581501655172600
0.046499298200261
-1.018643056843178
-0.007971606254278
0.148090108892465
0.627121583034447
0.347489986033359
-1.634792536473854
1.024170130822902
-3.529482841284026
-2.001135734844493
-0.446839520153869
-0.181591101342751
0.229524807125879
-4.904655237292023
-0.341645206717209
-0.789699288776187
-1.127224939595975
-0.319173056412294
-0.082899577789468
-2.904679511876244
-0.199328286673069
-0.589248384651676
-0.143305991393596
-0.070206390823096
-1.201852135803247
-0.046577921086337
-0.914887157505960
-0.708180246104701
-0.206441096278796
-0.360154247053256
-0.959675304478683
-2.237583088740513
-1.275024911872068
-1.582808532554385
-0.847492695444425
-1.492054261264322
-0.356450857386523
-1.238867600901575
-2.322766160547257
-0.291535859411558
-1.129797857551025
-1.211563311933040
-0.032804331194458
0.231693374418057
0.553088203640612
0.375331858854751
0.286899444631345
-0.144556907237406
1.157773490400158
0.330263643383601
0.817975602995955
0.145660137558699
2.131323021544681
0.701279519206131
0.018890663035372
1.529535588575046
0.410200008488769
0.833804057860252
-0.058654539371833
0.231630932081029
2.157559312230933
0.275981746697025
1.354313681516679
0.447620087037379
0.308508704829932
0.696797185445102
-0.094240243687448
0.099438537087674
0.075157393507105
2.809537131633977
-0.096108788514385
0.330588805610918
0.258568972743534
0.160204106551631
0.495422418255047
0.269858330798711
0.444544481242938
0.877851019154876
-0.268788694626514
-0.037317345577091
-1.686881198510770
-0.351446977285527
0.520075729973875
-4.248822272609847
0.354118466713836
1.002825644725525
1.040340734400953
0.115287180454748
0.150188142344548
0.797333927895809
-0.122957817561182
0.172740612728725
0.792047074670192
-2.677337771688705
-1.199243635795399
-1.347397759338461
-2.202905094997275
-0.908266407958676
-0.034214997956748
-1.193105284406935
2.323266005928051
-0.746788632245058
0.976922684041219
-0.325776404484262
0.473382429239649
-0.636376552818914
-0.403708166340489
1.813794422043963
0.344111836905363
0.491611446855891
1.589982639531844
1.237891810249778
1.116158663791855
0.822433009095603
1.997885530633089
-0.208759451790672
0.105787520279097
-4.443272696381007
-2.222818252798311
-0.738328503732754
0.437009849001498
-0.399442064693127
1.642577002631634
-0.151014292288463
1.005881626564676
0.011872235056007
0.116988129489505
0.378871739235908
-0.655993771886222
-0.134437954182820
-0.516031973150822
0.041842961103684
0.037421980918806
0.720521966691952
-0.003625163644560
-0.159387814131373
1.455196368593854
2.231262855472308
0.576041716194851
-0.949391730674029
0.165798894237914
0.465207286774528
-0.585528131673720
-0.062359057878898
0.133779901330573
-0.418254349326593
-0.138380591067316
0.329045680856936
-0.479184517627329
0.111591049715085
0.036538716539270
0.735660043185975
1.598903521608813
0.328896691666679
0.026211313514818
0.131622244147746
1.331002928352690
2.734622534616085
1.073466442428323
0.688081138762827
1.185594294141270
-0.005680512144670
0.264138445956931
-0.378917396512600
-0.365197413352175
-1.693685742066624
0.367020238830871
-2.442171216578700
0.299076864020028
0.191235046053548
-0.395906413321989
0.148504184167968
-0.448917870149556
0.346713355488728
-1.923853172123331
-2.898048594627281
-0.351291577475408
-1.071302654131482
0.266853949902585
-0.713578129077932
-1.790852168783313
-3.342294023605050
-1.179375110412279
1.017476868786113
0.000612101474403
-1.389601305582128
1.420152588155185
0.336914787482472
-0.087832476723098
1.260578134831645
-0.434161795396725
0.624117198503485
1.242786639183208
0.108964512622023
2.499149368114252
0.183562826048680
-0.007910610798392
0.072449533193474
0.083669224152995
0.088359066312975
1.091701751175155
0.013164817710193
0.401434613672219
0.095347379040097
0.044582011653024
0.343916250297216
0.014791710974177
0.329517319708749
0.151447472053707
-0.368574541642243
0.127584856737404
1.043770245084273
0.000976210734230
0.683783973375630
0.329247746883235
0.367502015688420
0.138012691720013
0.011275989900870
-0.389694166687089
-1.452880518340528
-0.150440285194392
0.402416308816475
1.367003327099293
-0.567471665162470
-3.516455410334280
0.397764210327213
-0.037677837147749
0.883974628523286
-0.113619140085169
0.547622516645054
1.807414079642178
1.079177024818435
-0.669447145714607
0.162844960296042
0.631344287727727
0.515381326297132
-0.912326802992229
-1.316164086266112
-0.002491498215550
-1.263963827648100
0.238961807364077
0.036168264628537
0.083636262250791
0.210255425493591
1.373896220256889
1.687648182268404
0.774632446264171
-4.807264515178271
-3.070956984426432
-2.029798018499259
-4.333481248031728
-1.680358099281529
-1.255521460010167
0.701750865292995
-0.309119736074479
-0.650834557517674
0.201255348301296
-0.547211621407439
0.392985677208646
0.274313435974514
-1.899069095718973
0.675922547193854
0.108119543420414
1.555370784035401
-0.223347841091539
3.025293288875377
0.965014692154511
-0.510070996085165
-1.739220396075171
-1.572773292853715
-0.346015337287108
-0.284223276373928
0.130296047778885
2.623200799564025
0.697168224654409
1.175449668608748
0.814402120858256
0.757734776166136
0.465505873155241
1.201450206114071
0.742461930991996
-0.018483115193250
-0.062975176786073
0.236157599930808
-0.043615775541701
-0.579315978315694
-4.091900790764546
-0.367106135614205
-0.259204908979730
1.277980556290224
-0.897390890957299
0.125371102139893
0.063745046623767
0.446146207392061
-0.127272629603436
2.043721813301961
-0.511567069305041
1.508130074472410
1.939527731021627
1.199010003753650
0.102393266200041
-0.152349929315675
-1.023346701749468
-0.167230866169021
-1.235407404088432
0.013560939973851
-0.059054132170493
-1.485275524696783
0.403931579391213
0.346815348903181
0.243873239861870
1.581133988433305
0.241348175009145
0.653989529082832
-0.065974312839618
1.441847790446315
0.025015373755870
-0.427669598639593
-1.840091149757459
1.100203466901098
-4.167889665588228
-0.527628471898538
-0.884870398278107
-0.173534659508697
1.906818289868192
0.022253731555094
-0.425152247191743
0.057891692529277
0.013969472369139
-0.121495205456910
-0.811294007573079
-1.006892384363030
-1.208998549518590
0.146239633643712
-0.187410863904487
-0.731363977132040
-0.026339109159999
1.802050082819121
0.865059650274137
-0.252390547620902
0.657157875664159
0.888803967321322
-0.250999024406477
0.659879639647782
0.042119783778561
2.330725231241701
1.344843711417465
0.728245195982775
0.844556654715285
0.051777840174225
0.757592660470140
-0.015886400312993
-1.037468965603975
0.429171041018084
0.202560719290692
0.374228447846552
0.182447575737743
0.133387914426745
0.005866577619054
0.075015816733436
-0.338439935844742
-3.016369038203501
0.238463116284665
-1.513179701618763
0.827358053596592
1.324622371299167
-0.805458563321568
0.525304343688908
0.256902568934459
2.820719995033402
-0.699115013413534
-0.404072781879480
-0.762758440990051
-0.440751313029472
-0.356031614868157
-3.289271302033855
-2.469554513672668
0.633720887894930
0.617041820193332
1.062740244144132
0.355656416624724
0.610531595295552
-0.130313579550562
-0.438342235544993
0.490551625237930
-0.134183972097532
0.210025026475382
0.078794472623631
0.466680860290129
0.175461558360963
0.079282428715305
-1.503971804733184
-0.019227416819789
0.991215648611275
-1.521059972048982
-2.026400618231425
1.113638708503336
0.298045183841543
-0.141634271591682
-0.339225122137315
1.271479642621437
0.413054999083958
1.104924736997231
0.465296771913652
-0.585899007908344
-2.516185462656616
0.589694670772181
-1.071964716516968
-4.410778652181746
0.127842068245776
0.157405164959139
0.090150583243588
0.035002046414818
0.944515686353046
-0.178517191966106
-0.352718400650462
0.323281485259086
0.440061415446816
-0.252200301384058
0.539573138323411
0.584786348940175
1.807651542161571
0.374697086109359
0.758003793489518
0.645930653957566
1.245060906843294
-0.348234333978737
1.007200756068343
-0.091317148027311
0.663287999903454
0.230215758901893
-0.120168241054946
0.330114024981706
1.451487409031524
1.171086924425042
0.004609731099442
-0.040407458200726
1.934364409793463
0.651799404796719
0.405620841515776
1.026927204288705
0.032604076587704
0.269072887331155
0.067173544621662
0.539547675158401
0.718140787901409
0.148689686396368
0.759890052343063
1.120170797262984
0.157045232574171
0.804213041487015
0.196066735764992
-0.041444410698272
0.159552634048277
0.266628008967431
0.338760784241565
0.111218631178578
0.677676492275029
-0.845442729660693
0.850287348152040
-3.920523975020594
-0.095710360137794
0.341327891349585
0.018973448483930
0.816286343268370
0.381411111267839
0.025854613433751
-0.371715878417083
-0.939095638441458
-0.756396182958115
-1.594995343847650
-0.774756871095865
0.552200258376388
0.160458319683089
1.007476886949107
-0.041109014626218
0.570065555800696
0.783672466941322
0.863560997944787
1.605117325338357
0.470555577604700
0.008120199614585
2.049961211243810
1.985619764583208
-0.214286052961268
0.011309649961683
0.707181553074045
0.284877875006914
1.697962978518470
0.130790863853156
-0.070145833503204
-0.055142972849784
0.127914993515576
-0.210230368826388
2.073851491006982
-0.095782590441145
0.612458743396400
0.802889327916155
0.266967260209682
0.195884125372384
-0.375848042794297
1.339329229213790
-0.151924016676761
0.995703631512164
0.431171407483017
-0.588906113228521
1.070160059563509
0.125005900536216
4.320479511234927
0.837114330084961
0.089938861447309
-0.236372753373311
-0.862837207968606
0.946327219546515
-1.029049260364336
0.889151278037900
0.597749729638978
-1.475019101709754
1.617997918875254
-1.546437524414349
1.413961123043824
0.327960767155828
1.668040870353661
-1.150707389019352
0.056560029928617
0.378746077862723
0.551201486108583
0.326269526498458
1.128561236031218
-0.447647254330402
0.036590161593015
-4.928797151177588
-0.111410637684293
0.277033511714865
-0.458494121573851
0.544925078950912
0.578135023338005
0.272536574424604
0.043558873419493
-0.048799904484301
-0.320813302450660
0.733465512638127
0.341085018450929
0.201656937828795
-0.371315478481904
0.777456721445217
0.676928033875521
0.004015561423297
0.022356303962112
0.043948806733615
0.000956235253807
0.177575514540701
0.597058147257166
0.140610076576512
-0.420554914949152
1.689992290474310
1.229997099310522
1.917435663464116
0.195090548215207
0.234404143877029
0.032964244516134
0.332630823413464
0.278754387164317
-0.299611074630767
0.388704051825999
-0.359828655747869
0.899803563441408
-0.138513406747910
0.142967575779994
-0.849409844365453
-2.308070939499600
0.055092652442154
-0.957356555300861
-0.019123742956892
-0.573009353607025
-0.845024302605021
-0.154199981395511
0.213169769081667
-0.273892292671261
0.532417578721828
-0.353656895650248
-1.899494719029646
-0.620509478829347
0.311434747169590
-1.044012393847010
-1.106182069658384
0.867067463804759
-1.810152435630122
1.887637026985250
-7.587522567962981
1.065714749233449
2.511289030330699
-0.252492751532879
0.273475852004535
-0.020982235937609
-0.192417139074533
-2.263384306685276
-0.095905565648891
-1.744578873467400
0.670575593322044
0.107401497646214
0.132293518954358
-0.505473802260783
1.039864542594226
0.434582194235789
0.754938407557255
1.622441619917017
-0.551209434381946
0.658364037070813
0.309944078275141
1.139574734345852
-0.779006750954851
-0.299044424888150
-2.879451496877733
-0.079611266287715
0.252533613071606
0.053035550355827
0.195867236072772
0.979814352634598
-0.840055975972479
0.181999998923369
0.287581632314291
1.343044306552481
-0.259182580106246
-1.445700341843745
-0.610352274522684
-2.909514817105495
0.268027980031568
0.411278345810664
-0.310143250670415
-0.250177469174847
1.303270271982832
-0.090843863315930
1.156061798833467
2.760749019946413
-1.256500673802520
0.520603347925377
0.008621430431694
-0.437814662229717
-0.742162434874106
-0.362008716114108
-1.394294570409397
-0.933472416512865
-0.137692500465475
-1.299664240796787
-3.644773577861687
0.276281501942387
-0.271851299667807
0.202345227248553
2.678124691007517
0.999023812699136
0.055149421814522
0.585836718416092
0.063130866032285
-0.600581782355318
-0.304864992903663
-3.522307248560476
0.143276390731157
-2.815415482697817
0.017815929836716
0.130345087564617
0.959479619983145
0.166345578015989
0.442904035396278
0.661960217750289
1.630092826073560
-0.264456682957370
1.137946820306842
0.488611624668343
0.955884610164701
-1.649360160909715
-1.124427740389766
-0.675218597737292
-1.014451008635314
-1.163951957159959
-0.018014303042104
-0.115476126967291
0.307438603897702
0.645188001567972
-0.109142191827057
0.582378884016117
-2.701937721430174
-0.062326534117044
-0.776301065010652
-0.065960994828506
-0.559920550723003
1.867752639529396
1.050944341521363
0.486702517805843
-7.652351391193225
0.915945774585454
-0.032487734733704
0.195392690816853
1.760524392239702
0.937587743479206
0.637395961606218
-0.038872509347948
0.200223504512615
-0.597009745632555
-0.485611817912746
0.243313292669464
0.069816520959686
0.670538409960655
0.210091304216997
-0.867681472942915
-0.949118563012625
0.724688134843445
-0.103539560009557
0.859931432693644
-0.392113970059478
1.540281202690925
0.101622874852992
0.110841201659791
1.306086886356557
0.010079011957044
-1.829245792609802
0.795127275162690
-1.218832862092349
-0.106547728693697
-0.394405937829041
0.700711399515171
0.553640957032135
0.040547191461192
1.107726489332946
-1.051732818780369
0.654807462922694
-2.487459130311604
-1.782571332413190
-0.071689854717949
0.046276889070716
1.440178734065791
-1.517458317343069
1.742912988463685
-0.042684274721548
1.094603487944429
0.140020595339476
-0.489876099823810
-0.415581839606957
-0.886123858219879
0.215939164386751
0.011579732005675
-0.082826357788092
0.809638397456692
-0.997348248178522
0.387620996218171
-0.492192072674819
-1.931031185595541
0.266455994365654
0.200072500043786
1.140476030776952
-0.461296510922929
-0.135772342639039
-0.411590347956769
-0.629168542187869
-0.417466026703982
-0.363438947828650
-2.127999598505394
0.892804205311658
1.383212562408586
0.083920372836932
1.601778611728093
-0.616538469422349
0.023244340280043
0.290660389027198
0.076776787837218
0.139044176883528
0.322761865228292
0.807668434769385
0.148617388686561
-4.285436070877116
0.257726820802470
0.181275035193324
0.268985961231369
0.201609828295449
-0.017456001220252
0.867243259411986
0.308638777453130
-0.959035286613580
0.242516988161468
-4.073740526253087
-1.185948984165198
-0.687044347452375
-1.988715602030416
-0.230490748218702
2.320470898682872
1.506846417397270
0.794618520803800
1.760903988780950
1.184337793987422
-0.051529496345953
1.277247991145289
-0.283412493678710
1.706773814686062
0.668812898303408
0.320635268971511
0.361460312225783
0.916530657431379
0.007641406756548
1.774808966190840
1.809022483022607
-1.240614397666862
-1.889910285184111
-2.083187404144228
-2.513917315441968
0.119891994337440
-0.064974390271176
0.044581460122452
-0.715094756306286
-0.769063135504883
0.133633807846304
0.271800364844889
0.120523417623580
0.639177353554183
0.294531622580131
0.771727119203031
0.588903093339964
-0.584310297262443
0.981597045854236
-0.104938782058761
1.136261131162399
0.140815773266949
-0.662792263428365
0.600492835878868
0.789876056447478
-0.103646122689524
1.220362952816104
0.062653273260004
0.677434444259481
0.178480657264157
1.057537607807645
1.382094850530518
-0.029994863872919
-0.871152566768834
0.335764292946403
1.940595031382197
1.720139790857816
-0.156531550571980
-3.353158332716533
-0.569183938614203
-1.474378611163470
-2.230158934610671
1.452734647062464
-0.235997865936740
0.958801515114764
1.311408018809091
0.348475538735606
-1.029228839738068
-0.362089249910171
-0.050844413959548
2.749631932437052
1.474016670027296
0.401027080781096
0.974157374349281
-1.865444231458143
0.735339979412087
1.245821744908308
1.042039366307591
-1.306623378970194
0.729841855170511
0.222652411623369
-0.157627220566824
-1.365853392373017
-0.416478405716594
-0.891690639113789
-0.621708106465495
-3.060557211272106
0.118437315274765
0.447153180861876
0.580097058020319
0.057000620827704
-0.631624649299236
-0.248373734906218
-0.821034665955568
-0.295458489503635
0.059199286950886
2.847318704109668
1.679535575570870
0.130913515956129
0.029738900002587
-3.077550632119148
-0.771287377304149
-0.103659054935814
-0.488730772690125
0.716078092765173
-0.231684672855457
-0.086620758171551
1.006905364064643
-1.338015244331481
-2.057333417130594
0.463026127535385
-0.499159074307827
-8.738305794041782
0.187475438394930
-3.398493824367705
-0.101646214283695
-5.318777143061554
-0.140367802232574
0.098600016220098
-0.132641600599595
-0.115976387337879
-0.593157486378679
-1.492842590200364
1.642979281081587
-2.363945002751322
-5.886573946925129
0.635443589320220
-0.104427650617848
-0.460452197421514
-0.387180616921452
-0.646861089213497
-1.270466002908652
0.166318079255901
-2.657190497382261
-1.773920587350913
-0.486073295479002
-0.331021699708609
1.367380865365465
-0.997903513097831
1.053558952325317
0.309376120003994
-0.136327250097777
-0.042540740064564
0.915054374351668
-0.037108996906489
-4.644493693856160
0.061510774400099
-0.285412736583274
-1.534729786131247
0.266539891674501
0.780398469061830
0.176375053937365
0.331882790454837
1.023409381532038
0.347172313488101
0.936987412312343
0.148788920108720
-0.690653278315508
0.318512152509302
-0.100380174867436
-0.088919138010037
0.295033710453084
-0.065013724614038
0.791847259947638
-1.755498045879070
-1.573596195287564
-1.586217555646618
-2.677823681490394
0.005809240794258
0.514738074469258
0.350606631303484
0.762758273651996
0.165224095739601
-0.227007053175553
0.433249060246092
0.153508896022559
0.891450860542753
0.252509084690658
1.778912638091668
-3.119769230723666
-0.696490488440179
-0.138658703693774
0.847077393252791
-0.833238365203660
3.040499637788318
1.262706836820955
0.215307143273696
0.623283757630962
0.541101587572581
-0.269163602428300
0.855676834507837
0.002523628238748
1.894427597788375
-0.089643340592909
2.058361511824050
0.028464033698096
0.193309907196535
0.346385574319357
-0.029880780159111
2.183836825020470
0.775731763597564
0.927031239249755
1.316062701884596
0.291617350012777
0.071581563574773
-3.368710543993343
-0.187250295952192
-2.438510610354839
1.154279404629597
1.883006650435238
0.861692866092291
0.744841013857874
0.142497256910292
-0.841381089697145
-0.559703345591105
-2.535129877641714
-2.640993564813604
-2.773902953564045
0.846937096764746
0.039615066381921
0.693454251130181
2.202689675455325
-0.336902952373338
0.662749607440972
-0.403268906133936
0.015917306242874
0.033400088647043
-0.030795522000395
-1.772373734915384
-0.261260621635873
0.624310666632164
-2.516971163663628
0.361178578185556
0.368028281894186
1.311031605918619
0.255316279338053
0.237855364486846
0.042990478708438
-0.434470000895571
-1.289946981841816
-1.935401080305381
-0.020887020671787
1.837877380527927
-1.011554885391909
0.895477653874972
0.103412191550004
-0.537207450072263
0.744245865803038
-0.379138860510348
0.288314464824279
-0.014521270745660
0.040711937559021
0.106615494627798
-0.067803864885085
0.457176971746152
-0.585055828145760
-3.882944293098137
-0.394732976871152
-0.920156738098695
-1.068676443158096
1.053563192910782
0.740171000886433
1.166474092563076
0.424545679801061
1.210634368725954
0.060480065064808
3.347056646781732
1.262497912611661
-0.209308587508401
0.485201619926778
1.890324544608252
-0.366196369750533
-0.794252052921529
-0.405110795511471
0.354252594845301
0.170717258612079
0.698526039543912
-0.483653454727635
-1.280094282351430
-0.814533621954649
-1.078762618324405
0.170927759760004
0.287753722589559
-7.231413689036384
-3.012734754260557
0.105893990154894
0.133376850732557
0.837995522786223
0.233561482669066
-0.096629627544015
1.609210609825464
0.114409970299973
0.495814267811604
0.671829723894391
-0.816424791004191
-0.798234935392302
-0.136098010598522
1.138303453145503
0.221611844612666
0.428394027323243
1.781174312179938
0.230879752170502
0.808358449270837
0.415762619617277
-0.577992366737384
0.411323580942261
-0.430408766182222
0.157582497040906
-0.916146618715418
-1.214216021309518
0.094843108916076
-0.676487842812611
-0.178759944626359
-0.753232513523963
0.054625568836735
-0.211002250134476
0.796936822367829
-0.755681951815473
-0.788410057754533
1.240047535070944
0.608086730095645
-0.287216375503149
-0.123944093347726
-0.141717492451667
0.169403562359081
-0.462841580549839
0.236386581743818
-0.229800513180184
0.761661361632883
1.115521778176364
-0.386445250477890
-0.158089624398400
0.696968536065031
0.661684986162904
1.838233229810452
-0.088589628156977
0.923669633771806
1.468423411239937
0.491497910982989
1.467073928262127
-0.193679654292683
-0.396800614858097
0.674854029157840
-0.777678002187546
0.004735901880801
1.304447966715370
0.283572577958232
-0.242686165324091
1.244024818415843
0.054337520852421
0.498581405836198
-0.358198323798217
0.933453002372568
0.113880680226128
0.101161988497553
-0.536165718534030
-0.484795040079153
-1.108014264967760
-0.108530499749271
-1.634671768394934
-0.672831053846480
-0.280293655977898
-0.356916131417373
0.240000017946442
-5.644984211212121
-1.520955338598962
0.333647811780358
0.037553051925737
-0.423903599001994
-3.103808930519937
-3.102033185837324
1.124624334051540
0.001116845321712
0.364832462037165
-0.723662294317199
0.094723077824900
0.249298519953732
0.804474079240120
0.707105125908851
-0.445902027848173
0.471802873427957
-2.981960908199156
-0.954987700861139
0.002765914208455
-1.516815439424932
1.652286594081025
0.437956246046233
-0.152112641096104
0.657681304504757
0.444205430388411
-0.333412867961268
0.207045970399896
-0.052035992050074
-0.050166645431106
-0.472973306563091
1.230042088741737
0.963302299676255
0.887472140575197
0.953692054439784
-0.064871571556067
0.274682157911919
-0.609463552100042
-0.075119142133717
0.161572705566191
0.574597611853168
-0.250896810928173
0.771295727648880
0.142315181312677
-0.905352626362205
-0.991436068476317
-1.802711233456228
-1.108736714383646
-1.122578810356049
-1.983003969674973
0.401228837971273
-1.569011696057176
-0.095245502899531
-1.249761233278364
0.797985708039844
0.711620651833473
0.621367911908653
0.547303467712399
-0.881799959197935
3.730220715548007
0.769265774376564
1.323181351884615
-0.105092866110723
0.501119647951018
0.017306421284391
-0.123891803750427
0.051931876614742
-0.017755700704406
1.403090324556579
-0.789256561540701
0.109905982096558
1.310067025092909
-0.961084052358149
2.013236229726079
-0.165943814499888
-0.164948356780771
-0.184539353675239
-2.740714487775907
-0.547391899506663
-1.191324547197817
-3.344440782677426
0.105048931755884
0.465090274175061
1.788482939154589
-0.190058030658890
-0.130266446061892
0.555065623059054
-3.599541820627925
0.308123785808190
0.522167178116362
-2.734514841972805
0.898723025056178
1.149107413264195
0.166952891167356
-0.321901493077961
0.290983554692785
-0.018008252254505
-0.262220241464056
0.404226692810040
-0.054686958905894
0.256289636453668
-0.772969468201290
1.828300009233529
0.877508110141001
0.583099047974667
1.688067924167579
-0.243682425604685
0.101286413417333
0.082303182482450
0.012567067136888
-0.114632952579503
-0.238706255011324
0.673979946516752
-1.286798511928943
-1.696870888209521
-0.485678420669779
1.331940617271433
-1.374524889304258
0.197731796738252
-0.107030276918524
1.027957898556016
1.856612020831102
-0.585459549944008
-0.156456342298829
-0.229126469416515
0.003440368644319
-0.580482241217497
0.745349771376328
-0.386764844222423
0.181347024640172
1.601472656809347
1.245307064868783
0.928161798693707
1.548019378758330
1.902095577920790
0.065049659976624
-0.537633374975477
0.006673671147611
-1.002821901452215
-0.090203789735946
1.152898900371782
0.280667120464274
0.568206894908893
-0.439594033115686
0.060281289050995
0.649738744786136
-0.047069707758547
0.640250347620577
-0.130880418656860
-0.539269195918763
1.473270499532925
0.265815824963256
0.001549908777224
1.406518522086621
0.506142586787329
0.195683872461671
0.061777118860011
-0.888230899399816
-0.248434991009806
1.031256566675064
0.150328580814989
1.061544984920755
-0.386408623187248
0.023937354054936
-0.689939543076469
-0.738275548710053
-0.039776172553427
-1.439998024736761
-2.812198910462710
-0.317102740171957
-0.362336967227417
2.011670803377326
-0.123001098406706
2.079324249550744
1.167292107069221
0.061048938375511
-0.538300395081906
0.284674509542783
0.070055318312163
0.270894528963685
-0.109688224840700
-0.222832043550731
-0.793394469356908
0.614571305859781
0.008516611701446
0.007137752486750
0.840221984037745
0.469505503731478
0.422220047610884
-0.193869337224757
-0.724801002524364
-0.512237262609588
0.015032480966155
0.078060378353149
-0.089446974968143
-0.318987155139188
1.096884590854186
0.124629072406164
-0.481464650158230
1.400864861037337
0.066713585298473
1.145756939678876
-0.325282565695585
0.671810587225074
0.294804001211787
0.197988131865989
2.273286465720433
1.474075555224625
-0.076311061960311
0.005559165047679
-0.019384572268458
-2.151446608576884
-0.109783456326003
-0.371082387509037
0.188638575451091
0.570208576115993
-0.065995295894185
0.224706794974134
0.341902127093625
0.009025727776810
-0.175144481161320
-0.324499915128697
-0.556227806168517
-0.939397153692342
-0.140966696550346
0.258467194730989
-0.186712229908580
0.760424995902640
0.546538068336236
-0.227002867328812
1.629041825310052
-0.009929515665772
-0.937721147115485
-2.572295714269595
-2.972997977247296
-0.491237718291669
-0.283535745336939
0.304534382759013
1.561203052402227
0.621283619014199
-1.348193599397169
0.327921432610914
0.257311450808377
-0.249578037403535
1.135717660345388
0.228508529043922
-2.842852843279383
-0.460091295643884
-0.745104062038749
-1.062626856940957
1.218551593066221
-1.131763113853173
0.392598440900322
-1.040732338265986
2.039232374070460
0.353388420068630
-0.409883143412247
-3.150718820405080
0.160589494576433
-0.034475384230123
0.302312654882050
1.105733974151451
0.000640578519699
-0.886072727887554
-0.244256766832016
0.409674375166446
1.438740826586179
0.396177530275625
-0.238345760531436
-0.014680209542681
-0.569593093899803
-0.039056618562143
-0.235509412238418
1.106280297771324
0.600209676098890
1.063282345485524
0.217604500946426
1.668923477335052
-0.053204550293564
-1.046782185952039
0.054778363407077
0.138841840582818
0.096609582899704
0.154910085045736
0.215760884118817
0.605807978673530
-0.679321923749822
-0.429010029699479
-0.235920141712845
0.099862386093936
0.139827215743128
0.039994887854414
0.644356019515364
0.809912328085861
0.503175716017082
0.939766294976115
-1.197209137853983
-0.221633190607890
-3.966330640579465
0.105906556385053
-0.126955539175480
1.155908333283500
1.493483342355153
0.738568722969730
-0.449600063518747
0.789509734528582
0.552600299166607
-0.486744063179250
0.995014211682402
-0.204508990232285
0.117982546463828
0.042771745288095
-0.103997183102609
0.366302105057327
0.494698693438052
0.119533382088316
0.671807827566659
0.229600308289324
2.405949385530220
0.569765921883150
0.010648998221276
0.737540469718568
0.841915423789408
0.487267916674798
-3.249108505300729
0.416954971822900
-1.567649686597914
1.233939191858369
0.509194670182887
0.122890368255369
-0.411674694303908
1.555958624085434
-0.166479439184544
0.090779206531684
-0.034153882654100
0.378097383028915
0.143648422066626
0.407130972552702
1.045891559425182
0.569770360446541
1.353399514269680
0.834656436050712
0.251845756911769
0.276761946618579
-0.481588160679087
1.069102410196303
0.203138266651043
0.355183022178547
0.724828693286810
-0.605504966033735
-3.367918838352631
0.030714550941079
-4.314009164365373
0.016203744806804
1.091664441738542
0.702905944788790
-3.403618068299996
-0.582721595353912
0.129936583978124
-2.058767776403326
-0.155052605762723
2.737969628868657
-0.168725491420109
1.777526166926497
0.258637898528544
2.049625458054507
2.252124833449474
0.271782724991433
-0.331341324215366
2.645679069353807
0.464378496994875
-0.689977383510201
0.596279980266431
0.259505674979188
1.040937331797844
-0.737383365114060
0.606033313686657
-0.819001575360093
-0.698712364852888
-1.309625888622218
-2.671300423042141
1.087890050801772
-0.487430116674028
0.704799270104153
0.413174740725192
0.045816603955481
0.139492508056923
1.336626072957385
-0.000451668789479
0.175349475420779
-2.429918378909122
0.184433099536494
0.277203134461748
-0.058205949559981
0.111573254329483
0.114195822230868
0.104657160438080
0.788554419615084
0.481286669322655
-0.049528190904566
-0.498655126340569
-0.684279920583525
0.636137721060107
0.088157772846794
0.313163673659669
1.535215101218977
0.050280883483002
0.008498241182628
0.537216372719144
0.486375539910457
0.377991627904683
-0.096049074627674
0.238060412458143
-3.971065277121932
-0.342630748293505
-2.059736544033859
-0.119369633940978
0.003696682294544
-0.587821968039716
-0.196446038299437
2.424288549928111
2.293105240526383
0.520275507246978
-4.788694209694366
0.010143419694149
-0.256463641608433
0.232431380803743
0.157570179989633
-0.030197142665536
0.197499365189327
0.129188100188614
0.584521748553791
0.631153680572902
0.071555753133667
-0.265930510619430
-0.143196938856674
1.020455092104033
0.380756324786455
0.053937781301394
-2.591901801032123
-1.801420022595420
-1.522297538131544
-1.532198765741039
0.399098047360984
1.420921912984382
0.618983582945218
-0.083906752634183
-0.197184281307053
-0.501975058640650
-2.111451429203492
0.085212502571436
-0.520602636259946
0.448320820485772
0.294938001989806
-0.050142883191379
-0.809974307081052
-0.712958114101042
-0.655876330841753
-0.216825512626212
0.397955690820518
-0.077567652257631
2.070204338863852
-0.531115505663373
1.008018975290517
0.581168944593242
0.090911779625929
-0.021482239672846
-0.390777213556406
0.138124391715295
0.094415144379343
-0.152274981649298
-1.576771124650735
0.236650195304476
0.060901108806006
0.019421391542343
1.027206386454487
0.193017247838913
0.756619277987904
1.308417160492395
-0.024698277583300
-0.693760269503900
0.771961059962674
0.430988172671244
0.903130979938447
0.444856534711264
-0.239631009046457
1.672318755006266
0.017766378331309
-0.021725154781612
0.036840233454940
-0.571922165712402
-1.598367624068286
0.126602738727877
-0.107628985435070
1.533642388328937
0.323905821654322
0.083346667261491
-0.470587180276388
0.991387684944971
0.364943981808902
0.480211911971279
0.165333203104082
-0.525577412562651
0.034215048808960
0.809438242289629
1.536490422469154
0.337039990287235
-1.856257824558074
-0.043194471194249
1.224410123783345
0.329190675232016
-3.697926427047101
-1.451772486653463
0.566351438163040
0.165641884754647
0.849637277700074
0.846534901206637
0.069392465217117
0.077204269432521
-0.150993197482471
0.147509673240050
0.230832432912316
0.373804126719292
-0.158797696669619
0.977432043464783
-0.020279104199099
0.744720863521106
0.374039994898417
0.419747897114190
-1.082988427345802
-0.587457627369331
1.649736933934107
-0.245669937897257
1.644298769348129
1.312643449037419
1.282361920637318
-0.272330192021716
0.221796469474227
0.092492335466853
-0.989520906714139
0.684386279565337
1.155594316822264
0.483234195756039
-0.116665895718732
-0.019946402312885
0.370422331275588
-0.581262745788093
1.317642952436745
0.906168286692763
0.186396703442130
1.802574419650308
0.081718927868129
-0.314206201189456
-0.938316572366065
-0.162603713955132
0.930102165817933
0.274345208686858
0.068554680909993
-0.081356890308334
-1.628499281592336
-0.185808005780009
0.706979806899146
-0.417492360477697
-2.721751495560234
0.288804916543956
-7.661768097390920
0.445157368737180
0.182434830322230
0.874033082802323
-0.522583231100869
0.085660506232522
-0.355601808384057
0.469891070494293
0.006481146234343
1.181080889067226
0.129019824458004
0.249430051874894
0.208187684294657
-0.085092770677225
0.362578809178690
-4.162234249503518
-0.074758447812083
-0.199867082938679
-0.025457730636421
-0.563892555720883
0.225375454596161
-0.300738499830255
-0.692516549878004
0.006106455913732
2.059150991119457
0.224969278370767
-0.354618093273387
1.651103485938256
1.695476425208672
3.559017482254764
0.105430064018611
-0.732863897148267
-0.492937631330175
3.177073189591698
-0.490943988513933
-0.061739627620008
0.402628200779870
0.421122856197877
0.087756323703135
0.059646485395209
-1.110502361622292
-1.959452768413467
0.774483392822877
-5.028678801490337
0.186818211389602
0.260377382713484
0.337665182069971
0.201525480800115
1.145882348299396
-0.207736833429195
-0.477787455140428
-0.153647105809711
0.154663971903976
0.022437373023568
2.738508491849404
0.775531538810634
0.432773736511664
0.197625562873860
-0.054087636942867
1.346100972579795
0.093939032163173
0.127986438747970
0.155254878645435
-4.094250752406213
2.033480504289678
-2.759203407808820
0.570507949335528
0.359796956277620
1.157145624569440
-0.369813755695473
-0.150972835422102
0.028489924941383
0.151146514979962
0.971497984113454
1.390013745530639
1.539777755563789
0.228538964223704
-1.743766770568333
-0.669771081026888
-2.333162059832257
0.585032476745837
0.335628213820703
0.573529560042455
-0.032643704897196
-3.438938871664568
-0.045122223144090
-0.538903526095237
0.045493029154290
0.187537527078720
-0.290703351486758
-0.728104318198700
-0.270851643804576
1.146113159361275
-0.469367602739535
0.276943562500268
0.500899818197045
0.125937997964655
-3.546708182151853
-1.980425867401695
1.503079673910882
0.453142918437895
3.685817049618836
-1.988256093361190
-0.286227072406633
-2.601247430201204
1.234757296731008
0.187058337680225
0.430935058845818
0.992334176246403
0.529093475910092
0.592150196193556
1.162392530926709
0.332240250299639
0.260493419424171
-0.214227705305456
-0.509940355144628
-0.193771652831383
-0.851572649636969
-0.261056845285868
-2.003241586619787
-0.794364391837417
-0.036813009031189
-0.142225948074515
-1.753528038411370
-0.955328067826690
-0.014465550662379
-0.226688906435359
-1.270614904894928
-0.965365749018796
1.148926933618145
-0.452637546592172
0.141917715841397
1.056569862624602
0.528144422635179
1.553452140074678
1.277511153426996
0.262572142666907
-0.558984502878913
0.916559561374435
-0.616741202029242
1.472240211852146
1.545948390064490
0.333266473267415
-1.154212570342647
-0.025378788418114
2.113392726504241
-2.788951376807333
0.113812698013635
0.175320507933782
0.230969818162892
0.454565156506741
-1.998938039841645
-0.290337669500060
0.279072016417547
0.939470112858565
-3.041305815533075
-0.152159634348842
0.016339718293209
1.229558284804950
0.338647448133876
-0.091480909038354
0.109660857682328
0.157880864149258
0.130792294711234
0.022864057189270
0.037712860883762
1.142417173406566
-0.117332611923897
-2.004068674398318
-2.393810236177991
-1.233819577109706
-0.200530745158513
0.250608072918495
2.838508458782083
-0.872604214215457
0.315947938742201
-0.098696226517256
0.668800134832881
0.323082538322953
0.149333132385761
-2.051195949027492
-1.697921225805181
-0.590307505763937
-2.896745364459330
-3.924215596464014
-0.050474928229973
1.964374287901254
0.015848202251233
0.314200728924489
0.220420976818033
0.028939665816307
0.175751738591018
0.364638715231159
0.379964258246971
0.497372065807930
2.554466301232499
0.041867400938551
1.040550080813850
0.024156151343405
-0.086675996895443
-4.879341461929886
0.107457875890330
1.344696227914893
-0.571280834406373
0.121497453234344
0.045683595953414
0.159606294808800
0.149309312939182
2.842566755544959
-0.128347899678470
-0.798536808909905
-2.659967729046148
-1.588631914225356
-2.546797344141962
1.389134810641296
0.091691566668754
0.035167740516573
1.243263877611919
-0.103726810786306
-0.325700831687387
-0.214622691507459
0.426429158706054
0.566027763290957
0.297060417379573
-2.717398696972928
-0.519418065775534
-2.159337248237753
-1.509985248592687
-0.179297931111202
-0.182751919945551
1.965336005942080
-0.307829227998261
0.613885314750880
-0.074637546687232
-0.062148180687258
-0.425133595170020
-0.974953490966753
1.191348074477367
1.928234287866275
-0.470689313013377
0.078440614855609
1.180741434888201
-4.593072197263768
